103 768
ч╗П -0.6349227428436279 0.2191237062215805 0.6526876091957092 -0.1945521980524063 0.0053280917927622795 -0.5153852701187134 -0.1511552780866623 -0.0053573972545564175 -0.4910148084163666 0.8063439726829529 -0.06165119633078575 -0.47547638416290283 0.7282958626747131 -0.2844143211841583 0.1748337745666504 -0.15375980734825134 0.7279656529426575 0.08593054860830307 -0.6389344334602356 -0.19930627942085266 0.6535402536392212 0.6077992916107178 -0.15839610993862152 -0.04458935186266899 -0.002766205696389079 0.5590170621871948 -0.122065968811512 -0.1652103215456009 0.6375499367713928 0.3112855851650238 -0.11977813392877579 -0.34939804673194885 -0.7199302315711975 0.3748765289783478 0.1872558742761612 -0.04006410390138626 0.2219899594783783 0.06562236696481705 0.252219021320343 -0.08087534457445145 0.4709905982017517 -1.0058714151382446 -0.3149849474430084 -0.9717283248901367 -0.3399554491043091 -0.26282089948654175 0.20083387196063995 0.17494364082813263 -0.33499541878700256 0.5171286463737488 0.5773879885673523 8.49261474609375 0.27669206261634827 0.27110129594802856 -0.24841630458831787 0.07351533323526382 -0.05824557691812515 -0.4047240912914276 -0.45731452107429504 0.4561556875705719 -0.22098945081233978 -0.8182480335235596 0.49268773198127747 0.1800837516784668 0.2740977108478546 -0.1005047857761383 0.340512752532959 0.3863188922405243 0.21630580723285675 0.27530595660209656 0.7543351054191589 0.37485188245773315 -0.3272140920162201 0.4693182706832886 0.0019873748533427715 -0.026748569682240486 -0.5654529929161072 1.2577447891235352 -0.6487835645675659 -0.8633127808570862 -0.18073537945747375 0.22491617500782013 -0.0897434651851654 -0.09487912058830261 -0.18293392658233643 -0.10313042998313904 -0.41960036754608154 -0.9129883050918579 0.48861268162727356 0.48842546343803406 -0.7494894862174988 -0.5447937250137329 -0.09031854569911957 -0.25566548109054565 1.0098103284835815 -0.4957202970981598 0.5677614808082581 0.021141046658158302 -0.30118831992149353 0.6783785223960876 -0.26474812626838684 -0.7298630475997925 -0.5931677222251892 -0.10957393795251846 0.19374585151672363 -0.30907270312309265 0.23388671875 -0.15844184160232544 -0.29373595118522644 0.1750338077545166 -0.6600620746612549 -0.07448078691959381 0.11182617396116257 -0.03514881432056427 -0.656825065612793 -0.32965153455734253 -0.5505751371383667 0.05001819506287575 0.5856546759605408 0.4004579186439514 -0.06249011307954788 -0.02752731367945671 0.04434966668486595 -0.5335049629211426 0.7627251744270325 -0.7530080080032349 0.44621503353118896 -0.2635343372821808 0.3194642961025238 -0.047826189547777176 0.022998841479420662 0.5193554759025574 -0.29914507269859314 0.08814366161823273 1.3665771484375 -0.3644561469554901 0.26828208565711975 0.40145641565322876 0.04236521199345589 0.06658374518156052 0.7123649716377258 -0.92718905210495 0.03531268611550331 0.6125710606575012 0.5591213703155518 0.44396424293518066 -0.4109480381011963 -0.20252491533756256 0.3021821975708008 0.682865560054779 0.05913093313574791 -0.19297650456428528 0.3705689609050751 0.011861833743751049 0.15730762481689453 -0.02843138948082924 -0.3701295554637909 -0.1573645919561386 -0.804431676864624 0.949844479560852 -0.2862180769443512 -0.03103557974100113 -0.32686474919319153 -0.3248386085033417 -0.19417203962802887 0.40795212984085083 -0.36856940388679504 -0.1484108567237854 0.6311392784118652 -0.08720305562019348 -0.3681824207305908 -0.30044683814048767 -0.27189943194389343 -0.5089948773384094 0.005035300273448229 0.03496605530381203 -0.5697871446609497 -0.027237549424171448 -0.2055581659078598 -0.9593261480331421 -0.584287166595459 -0.01257980614900589 0.6457107067108154 0.6155927181243896 -0.31062522530555725 0.5346875190734863 0.2435796558856964 0.5151569843292236 0.5796093344688416 -0.32726070284843445 -0.6777279376983643 -0.31727689504623413 -0.29965248703956604 -0.1324731409549713 -0.02813897468149662 0.02129703387618065 -0.4373214542865753 -0.4213504195213318 -0.5617373585700989 0.38660871982574463 -0.42009422183036804 -0.5871778130531311 -0.2396942675113678 0.7485917806625366 0.13597843050956726 0.5808591246604919 0.1388097107410431 0.43487611413002014 0.2333652526140213 0.5042727589607239 -0.12679101526737213 -0.8303967714309692 0.5176128149032593 0.2638610303401947 0.4059443771839142 0.5179904699325562 -0.31990140676498413 -0.40388524532318115 0.11646126210689545 -0.7678183913230896 0.29239460825920105 -0.5501656532287598 0.571129322052002 0.1593749076128006 -0.024460969492793083 0.18758925795555115 -0.2790452241897583 0.9260205626487732 -0.776882529258728 -0.15705905854701996 -0.3703511357307434 -0.18188168108463287 -0.6413972973823547 0.5236108303070068 -0.5303194522857666 0.8567410707473755 0.3802238702774048 -0.1760719269514084 -0.48935773968696594 -0.36792510747909546 0.8105034828186035 0.03225092589855194 -0.04736935347318649 0.3577634394168854 0.12880823016166687 0.23415975272655487 0.12161474674940109 -0.11728575825691223 0.0792170986533165 -0.04318566247820854 -0.09227614104747772 -0.20974181592464447 0.5946027040481567 -0.7477065324783325 0.03893990442156792 0.4284098446369171 -0.4603094756603241 -0.6814702749252319 0.09577585756778717 0.36477115750312805 0.11785876750946045 -0.8931801915168762 0.213035449385643 -0.33275583386421204 -0.044991858303546906 -0.4623514413833618 -0.1408541053533554 -0.1349976360797882 0.4218776226043701 0.136069193482399 0.4130355715751648 0.2643878757953644 0.5324925780296326 -0.29819631576538086 0.6289798021316528 -0.41220271587371826 -0.41572800278663635 -0.5018623471260071 -0.22115635871887207 -0.16143308579921722 0.3740321099758148 0.11447296291589737 0.13515222072601318 0.18901200592517853 -0.4097760319709778 -0.5565252900123596 -0.11879066377878189 -0.248922660946846 -0.25071755051612854 -0.574315071105957 -0.7187302112579346 -0.9045090079307556 0.32392096519470215 -0.5194692015647888 1.00644052028656 0.038583699613809586 -0.35020509362220764 0.10914401710033417 -0.6714648604393005 -0.44229504466056824 -0.7617040872573853 0.08892680704593658 -0.6215126514434814 0.8790437579154968 0.3646647334098816 0.0915464237332344 -0.010227777063846588 -0.026620710268616676 -0.30826979875564575 -0.04927350580692291 -0.21406328678131104 -0.16278259456157684 0.4178639352321625 -0.4442499577999115 -0.9426360130310059 -0.3474980592727661 0.20623579621315002 -0.37402084469795227 0.34521210193634033 0.37338316440582275 0.7370466589927673 -0.2810252010822296 0.5713226199150085 -0.023363884538412094 -0.38970428705215454 -0.014216088689863682 -0.17330482602119446 0.6031665205955505 -0.4466937482357025 1.0035746097564697 -0.3540114462375641 -0.13566173613071442 -0.02687506563961506 0.7572155594825745 0.3719346225261688 0.23994708061218262 -0.030061116442084312 -0.2672556936740875 -0.22000287473201752 -0.18299022316932678 -0.06392155587673187 0.27028998732566833 0.08852442353963852 0.01858164370059967 -0.12109574675559998 -0.3405100703239441 0.45369455218315125 -0.5775282979011536 0.616140604019165 -0.1465802788734436 -0.8110694289207458 0.6253260374069214 -0.3894507586956024 0.09523560851812363 -0.2129964679479599 0.44629475474357605 -0.029060695320367813 0.12723565101623535 -0.15376582741737366 0.6161250472068787 -0.5272113680839539 -0.13957278430461884 -0.17360368371009827 1.055190086364746 0.8527172207832336 0.23437656462192535 -0.04245183616876602 -0.3582141697406769 -0.01043377723544836 -0.4206160008907318 0.4092768728733063 -0.5033137202262878 0.9730338454246521 0.36392802000045776 0.6021905541419983 -0.542003870010376 0.23497717082500458 0.3191785216331482 -0.4632788300514221 -0.2560683488845825 -0.0638972595334053 -0.26302245259284973 -0.2470446676015854 0.6483919620513916 -0.7355942726135254 0.42731383442878723 0.2279035747051239 -0.6401168704032898 0.28856775164604187 0.36163216829299927 -0.24925193190574646 -0.1695590615272522 -0.3004353940486908 -0.7429432272911072 -0.29963451623916626 -0.019267642870545387 -0.3231714963912964 -0.11999116837978363 -0.10768426209688187 -0.08177512139081955 0.41713500022888184 0.09095121175050735 -0.770250141620636 -0.8153918981552124 -0.12933661043643951 -0.3588744103908539 -0.09421080350875854 0.015079380944371223 0.5537956953048706 -0.8072366118431091 -0.3788221478462219 0.8476404547691345 0.08031735569238663 -0.2352084368467331 0.29177460074424744 -0.11424610763788223 0.2775382399559021 -1.1714204549789429 0.475696325302124 -0.5695127844810486 0.18729554116725922 0.5654633641242981 0.2965349555015564 -0.5596057176589966 0.8092594742774963 0.3360193967819214 0.2254725694656372 -0.4086422920227051 -0.062065981328487396 -0.6542660593986511 -0.11799516528844833 0.29366520047187805 -0.5460442304611206 0.17088598012924194 0.4766264259815216 0.20435678958892822 -0.5823831558227539 0.2951623499393463 -0.5222459435462952 -0.35535499453544617 -0.17888520658016205 -0.6439823508262634 0.3774676024913788 0.6918770670890808 0.3347961902618408 -0.233722984790802 0.06318873167037964 -0.16574278473854065 0.06437497586011887 -0.039929065853357315 0.1585872918367386 0.519700288772583 -0.6572691798210144 0.31668147444725037 0.10717117786407471 -0.38594672083854675 0.763030469417572 -0.1921825110912323 -0.3901294469833374 -0.06906667351722717 -0.08826961368322372 0.2485487163066864 -0.3783702850341797 0.01244368590414524 0.047672905027866364 0.598333477973938 -0.0488622821867466 -1.1647648811340332 0.796690046787262 -0.6173719167709351 0.2961204946041107 0.419264554977417 -0.3771788477897644 0.5993144512176514 -0.5610302090644836 -0.019946187734603882 -0.41795554757118225 -0.07541830837726593 -1.0061007738113403 -0.120500847697258 -0.04488090053200722 -0.14798051118850708 -0.3966657817363739 -0.9046205878257751 -0.5523432493209839 0.31895607709884644 -0.8481656312942505 -0.24406340718269348 0.15953773260116577 -0.2343824803829193 -0.7713901996612549 -0.6305909752845764 0.6299555897712708 -0.4504474699497223 -0.3300054967403412 -0.774237334728241 0.34709444642066956 0.9066561460494995 -0.6737377643585205 -0.10672812908887863 -0.15352241694927216 0.32951679825782776 0.052648402750492096 -0.3640119135379791 -0.6192280650138855 0.3321799337863922 -0.2663063108921051 0.053284648805856705 -0.41991323232650757 0.018081365153193474 0.21687032282352448 -0.014768214896321297 -0.30900368094444275 0.5320753455162048 0.4043067991733551 -0.2750086486339569 0.22570396959781647 -0.28221768140792847 0.0162308681756258 -0.3759126365184784 -0.03493780270218849 -0.1431524008512497 0.4794836640357971 -0.04133008420467377 -0.28242555260658264 0.176036074757576 0.2645794153213501 -0.17492897808551788 0.6394962072372437 0.12052122503519058 1.0124399662017822 -0.08600201457738876 0.048922330141067505 -0.7681196928024292 0.4144931435585022 -0.41243278980255127 0.48212552070617676 -0.12563462555408478 -0.9172118306159973 -0.008798248134553432 0.41379308700561523 -0.06749456375837326 0.9647929668426514 -0.32938113808631897 0.0720982477068901 -0.8227113485336304 0.3308189809322357 -0.1698603630065918 0.5655759572982788 0.44788655638694763 -0.30550631880760193 -0.01633097417652607 0.31310102343559265 -0.3173767924308777 0.2384963482618332 -0.48700836300849915 -0.43417006731033325 0.13299882411956787 -0.3514612913131714 -0.5378006100654602 -0.26172077655792236 0.5694143772125244 -0.7593899369239807 0.36190617084503174 -0.2719034254550934 -0.07802630215883255 0.06635411083698273 0.0749921128153801 0.09243839979171753 -0.29013022780418396 0.14314623177051544 -0.312777578830719 0.611130952835083 -0.4213016629219055 0.5418478846549988 -0.18340498208999634 -0.24333080649375916 -0.2585419714450836 0.28327155113220215 0.2581639289855957 0.6240652203559875 0.3003292381763458 -0.2762479782104492 -0.528414249420166 -0.2011374533176422 0.5435358881950378 0.6321329474449158 0.2310015708208084 0.5810813903808594 0.3024367690086365 -0.44629141688346863 -0.20158258080482483 -0.2797251343727112 0.45390304923057556 -0.8711216449737549 -1.0562936067581177 0.24534834921360016 -0.1174238920211792 -0.2960524260997772 0.5341376662254333 0.18591825664043427 -0.8858894109725952 -0.6450700163841248 0.7380529642105103 0.4466246962547302 0.364332914352417 0.8245575428009033 -0.25318142771720886 -0.8216451406478882 0.7000697255134583 -0.057911958545446396 -0.47394952178001404 0.4882991313934326 0.07235776633024216 -0.43325716257095337 -0.24267053604125977 -0.37684905529022217 0.4334850013256073 -0.3721792995929718 -0.05492021143436432 -0.5277178883552551 -0.4730066955089569 0.48178064823150635 0.44385769963264465 -0.3670741021633148 0.0398331880569458 1.0771039724349976 -0.08983611315488815 0.2395942509174347 -0.7757388949394226 0.4908938407897949 -0.9626264572143555 0.705819308757782 -0.2781333327293396 -0.30082592368125916 0.1498061716556549 0.11761474609375 0.13723106682300568 -0.18170438706874847 0.7417218685150146 0.3602406084537506 -0.8406710624694824 -0.09996333718299866 -0.4818941354751587 0.9024585485458374 -0.25933194160461426 0.7867584824562073 0.2862014174461365 0.25731801986694336 -0.00466382410377264 0.8524218201637268 -0.5940122008323669 0.13103199005126953 0.047965921461582184 -0.01347580086439848 -0.36661481857299805 0.7525017857551575 0.4781064987182617 -0.8382956981658936 -0.7155652642250061 -0.161985382437706 0.5759457945823669 1.0026718378067017 -0.4944869875907898 0.46459025144577026 -0.45425868034362793 -0.005699890665709972 0.5270624160766602 -0.01551297027617693 -0.18631209433078766 0.3774685859680176 0.25419971346855164 0.19735564291477203 -0.8861117362976074 -0.5535905957221985 0.5045807957649231 0.2000098079442978 0.13233532011508942 0.050604384392499924 -0.10510867834091187 0.116432324051857 0.5902954936027527 -0.09442490339279175 -0.03185201808810234 -0.3122444152832031 -0.23825174570083618 0.26242101192474365 -0.6400957703590393 -0.7168961763381958 0.10742557793855667 -0.008229835890233517 0.32912588119506836 0.07908101379871368 -0.003749713534489274 -0.2430620789527893 1.6793694496154785 -0.3710685670375824 0.45145848393440247 0.5128462910652161 -0.4611952006816864 1.07854425907135 0.4312088191509247 -0.3850295841693878 0.05353972315788269 -0.11052165180444717 0.1109425276517868 -0.38551753759384155 0.13939349353313446 -0.46934810280799866 0.8036413788795471 -0.4094524383544922 0.15792518854141235 0.43459951877593994 -0.8136116862297058 0.1542690545320511 -0.06780213862657547 0.29993364214897156 -0.06251382827758789 0.21992407739162445 -0.6101934909820557 0.44257351756095886 -0.31692469120025635 0.07686451822519302 -0.7336785793304443 0.7672476172447205 0.35305264592170715 -0.16828447580337524 0.30095943808555603 -0.3836551606655121 -0.02313036285340786 0.01821811869740486 0.24279528856277466 -0.058057911694049835 -0.17226189374923706 -0.16583120822906494 0.6150333881378174 -0.10335223376750946 0.04541102796792984 0.5549620389938354 0.869705855846405 -0.33982059359550476 -0.2990395426750183 -0.4307209849357605 -0.7406566143035889 -0.34570351243019104 -0.027503039687871933 -0.687758207321167 -1.0693213939666748 0.4420763850212097 0.5917513966560364 -0.12135200202465057 -0.23489606380462646 1.0128401517868042 0.021107222884893417 0.14694908261299133 0.02681780606508255 0.9041907787322998 -0.5031111836433411 0.6600444316864014 0.4487035572528839 0.2976014018058777 -1.2382055521011353 -0.29282718896865845 -0.6577267050743103 -0.677581250667572 0.07224903255701065 -0.28542596101760864 -0.18289992213249207
 -0.08507142215967178 0.4664561450481415 -0.09154299646615982 0.8713406920433044 -0.17567534744739532 -0.19957591593265533 0.05240356922149658 0.26010778546333313 -0.4544600248336792 0.3804853558540344 0.03987959399819374 0.3919501304626465 0.21097227931022644 -0.7544752955436707 -0.4627663791179657 -0.18788233399391174 -0.036324091255664825 -0.05804992839694023 -0.12370707839727402 -0.3045869469642639 0.2962504029273987 0.13045014441013336 -0.15624631941318512 -0.1505891978740692 -0.6600190997123718 0.2824476361274719 -0.5104549527168274 0.12329785525798798 -0.26085618138313293 0.02781922183930874 -0.41860881447792053 -0.5885933637619019 -0.22045792639255524 0.6388000249862671 0.05564331263303757 0.4939405918121338 0.177525594830513 -0.16220106184482574 0.08131543546915054 0.2892614006996155 0.07120314240455627 0.7403284907341003 -0.8321777582168579 0.17127034068107605 -0.5102048516273499 0.6180709600448608 -0.16762657463550568 0.5996723771095276 -1.0375910997390747 0.6045128703117371 0.19633378088474274 2.657095193862915 -0.0693051815032959 0.6196094155311584 0.2813943922519684 0.632892370223999 -0.2543945610523224 -0.023220431059598923 0.3308089077472687 0.41762328147888184 -0.21119055151939392 -0.27680861949920654 0.3285508155822754 -0.17106999456882477 -0.06713685393333435 -0.09295763820409775 -0.9219557046890259 0.03081238828599453 0.38718459010124207 0.15519492328166962 0.2790689170360565 -0.1938878297805786 -0.08073866367340088 0.5883251428604126 -0.2147284597158432 0.12614084780216217 0.31661468744277954 0.8060194849967957 -0.6924481391906738 0.12493059784173965 -0.39514556527137756 0.0989256203174591 0.13406910002231598 -0.689253568649292 -0.32919788360595703 0.5463180541992188 -0.2916865050792694 -1.2653028964996338 0.03444630280137062 -0.026321036741137505 -0.20272839069366455 -0.2912748456001282 -0.6069770455360413 0.5609384179115295 0.5286762118339539 -0.022371815517544746 0.32924211025238037 0.35123276710510254 -0.4152061939239502 0.11454790085554123 0.04241219535470009 -0.5345686078071594 -0.055184945464134216 -0.41778406500816345 0.41999682784080505 0.19823449850082397 -0.8050282001495361 0.3211425840854645 -0.08655952662229538 -0.07200634479522705 0.20973190665245056 -0.2859039306640625 -0.436565637588501 -0.13451741635799408 -0.4455677568912506 -0.11223407089710236 -0.23473037779331207 -0.08580616861581802 -0.018520016223192215 0.12104175984859467 0.1684551239013672 -0.21083013713359833 -0.27782922983169556 -0.7889359593391418 0.6970569491386414 -0.5033516883850098 0.1698797643184662 0.13933129608631134 -0.5432097911834717 0.6011984944343567 -0.07419732958078384 0.1645050048828125 -0.9255252480506897 -0.1259811520576477 0.7785777449607849 0.31044629216194153 -0.22625455260276794 0.20273296535015106 -0.2093784511089325 -0.4632064402103424 1.1222822666168213 -0.13790710270404816 -0.25493180751800537 -0.6513969302177429 0.25276538729667664 -0.2552930414676666 -0.24734565615653992 -0.18444719910621643 0.3366256058216095 0.4015558362007141 -0.004470214247703552 -0.26484569907188416 -0.12305448204278946 0.10412182658910751 0.21407833695411682 0.2805321514606476 -0.32334277033805847 -0.011861667968332767 -0.957270085811615 0.18402226269245148 -0.4259827733039856 0.19192561507225037 -0.10779107362031937 -0.5417749881744385 -0.21491189301013947 0.08740262687206268 -0.5535165071487427 -0.7991161942481995 0.7852351665496826 -0.6430249214172363 -0.5344597697257996 0.18112105131149292 -0.27244341373443604 0.2114270031452179 -0.37010717391967773 -0.5960803627967834 -0.16628634929656982 0.02605188637971878 -1.1216977834701538 -0.4307032823562622 -0.7536506652832031 -0.15287214517593384 -0.1705966591835022 -0.22312642633914948 0.060728322714567184 -0.40455177426338196 -0.3833617866039276 0.7067835330963135 -0.11502127349376678 0.5945547819137573 -0.7287724614143372 0.20526401698589325 -0.7085959315299988 0.007039712741971016 0.3280601501464844 0.7103593945503235 -0.10096423327922821 0.0820094645023346 -0.14300130307674408 -0.32885873317718506 0.3798356056213379 -0.07968955487012863 0.3824807107448578 0.8935214877128601 0.5528786778450012 0.6483451724052429 -0.4411260783672333 0.1922072470188141 0.5573034882545471 0.09941791743040085 -0.934040904045105 -0.6198728680610657 -0.6138556003570557 -0.0862668827176094 0.2499934434890747 -0.12037543207406998 -0.599833071231842 0.10804494470357895 0.10154658555984497 -0.4074358642101288 0.5159696340560913 -0.15165024995803833 -0.05257090553641319 -0.895082950592041 -0.3550735116004944 0.07801926136016846 -0.649006187915802 -0.08561974763870239 -0.32145920395851135 -0.39093533158302307 -0.263261079788208 -0.7091085314750671 -0.5284544229507446 -0.8245858550071716 0.40419358015060425 -0.24511116743087769 0.13907957077026367 0.3875883221626282 -0.7973252534866333 0.10032618790864944 0.015566299669444561 0.15361735224723816 -0.663375198841095 0.3640720248222351 -0.37936803698539734 -0.24711187183856964 -0.16935741901397705 -0.5195742845535278 0.40826019644737244 0.4737740457057953 0.6165875792503357 0.00212633004412055 0.6538095474243164 -0.07600946724414825 -0.2526785433292389 -0.029644373804330826 0.2116146832704544 -0.5645995736122131 -0.6806902289390564 -0.21646000444889069 0.29217633605003357 0.32424235343933105 1.3305128812789917 0.8718432188034058 -0.11525317281484604 0.04047976806759834 0.4301910698413849 -0.22846925258636475 -0.5402454733848572 -0.1643158346414566 0.3457684814929962 0.9887235164642334 0.012590999715030193 0.24928806722164154 0.19114109873771667 -0.5993055701255798 -0.24314400553703308 0.24494622647762299 -0.23573558032512665 -0.8414196372032166 0.3388538956642151 0.20539413392543793 -0.4641117751598358 -0.16768361628055573 -0.891411304473877 0.2979530692100525 -0.31707563996315 -0.2752344608306885 -0.6930952668190002 -0.5159426331520081 0.35129377245903015 0.3003769516944885 0.2681572437286377 0.10166782140731812 11.330817222595215 -0.7265885472297668 0.07555945217609406 0.09956637769937515 -0.27211543917655945 -0.1660391241312027 0.46204519271850586 -0.3478284478187561 -0.8216041922569275 0.30462825298309326 0.06305938214063644 0.03802553564310074 0.1610729992389679 0.20314323902130127 -0.10184772312641144 -0.16506695747375488 0.3862922787666321 -0.48396316170692444 0.39947450160980225 0.22860124707221985 -0.8092736005783081 0.48216477036476135 -0.6414250731468201 -0.37817808985710144 0.28755003213882446 0.31187382340431213 -0.0010486481478437781 -0.012425096705555916 0.8520699739456177 0.6252281665802002 -0.15235258638858795 -0.4356094300746918 -0.03976347669959068 0.31842944025993347 -0.014260400086641312 0.7186911106109619 0.7681957483291626 -0.29620999097824097 0.46951374411582947 0.7820568084716797 0.26805344223976135 0.26109999418258667 -0.3173021674156189 0.09196808189153671 -1.152943730354309 0.019273046404123306 -0.33988893032073975 -0.4733118414878845 0.37491101026535034 0.4696909189224243 0.7476301789283752 0.2177099585533142 -0.6310344934463501 -0.4703212380409241 0.00418256176635623 0.1324280947446823 0.06991282105445862 0.2218102514743805 0.19384662806987762 -0.011354009620845318 -0.7818652987480164 0.6478269696235657 0.38235703110694885 -0.19319847226142883 0.3404463529586792 1.1017504930496216 -0.6010737419128418 -0.34956857562065125 -0.09177650511264801 0.4597446024417877 0.7035433650016785 0.015882503241300583 -0.13411682844161987 0.08069285750389099 0.9109089374542236 -0.47063490748405457 0.07810976356267929 -0.024809004738926888 1.0047032833099365 -0.40178292989730835 0.8081806898117065 -0.4230780005455017 -0.290677011013031 -0.22897900640964508 0.4134565591812134 -0.4247826635837555 0.07111287117004395 -0.3203319013118744 -0.7729433178901672 -0.6126001477241516 -0.6862684488296509 -0.35369089245796204 -0.34318381547927856 -0.44579702615737915 0.027967289090156555 -0.5827121734619141 0.3916291296482086 -0.4132783114910126 -0.02318437770009041 -0.45817041397094727 -0.6075477600097656 -0.2318698763847351 -0.35767990350723267 0.42390406131744385 0.1343560367822647 0.13495682179927826 0.5503090620040894 0.1280154585838318 -0.02618551440536976 -0.41468822956085205 0.4222007393836975 -0.773807942867279 0.42116737365722656 0.14471663534641266 0.29350340366363525 -0.3503075838088989 -0.7913950085639954 -0.033718291670084 0.43592241406440735 -0.7153021097183228 -0.34818974137306213 -0.09711167216300964 -0.030861100181937218 -0.19527307152748108 0.5881220102310181 -0.002815800718963146 0.31154865026474 -0.5590905547142029 0.6705675721168518 0.7721128463745117 0.7292895913124084 -0.04573896899819374 0.2813296318054199 0.34983476996421814 0.6097051501274109 -0.9134808778762817 0.2672848105430603 0.23861153423786163 -0.2899627983570099 -1.043405294418335 0.14182224869728088 -0.06810503453016281 -0.2530854642391205 0.046681977808475494 0.06851053982973099 -0.12165147811174393 -0.33614495396614075 -0.08113618195056915 -0.6446170210838318 -0.07333028316497803 -0.08582053333520889 0.47747597098350525 0.09434816241264343 -0.33694934844970703 0.6267775297164917 0.03976842015981674 0.2254873663187027 0.5313215851783752 0.24554508924484253 -0.3931351602077484 0.6581158638000488 -0.6150968074798584 -0.01920383609831333 -0.6821931600570679 0.10716552287340164 0.9769028425216675 0.17891331017017365 -0.2051176279783249 -0.14897996187210083 -0.4956985116004944 0.22831940650939941 0.3299192190170288 0.020409857854247093 -0.6144264936447144 0.1602533459663391 0.5235928297042847 0.3250459134578705 0.3446517586708069 -0.26377859711647034 -0.17171713709831238 -0.3157247304916382 -0.141960009932518 -0.4044307768344879 -0.14255847036838531 -0.4565446078777313 -0.4135109484195709 -0.10855456441640854 0.01030849851667881 0.036036405712366104 -0.1992129385471344 -0.4321099519729614 0.640850841999054 -0.40528666973114014 0.10414393246173859 0.37001028656959534 -0.33205467462539673 -0.8885800838470459 0.2528010606765747 -0.03066788800060749 -0.618704080581665 -0.17686747014522552 -0.5010334849357605 -0.07742245495319366 0.5182176232337952 -0.26439169049263 -0.20953820645809174 0.14424777030944824 -0.23512308299541473 0.40390023589134216 0.2684275507926941 0.011691021732985973 -0.5588955879211426 -0.6690646409988403 -0.10231751203536987 -0.2413247525691986 -0.11398489028215408 0.7073823809623718 0.09190242737531662 -0.31877726316452026 0.5988563299179077 0.2554556131362915 0.1486176699399948 -0.11931212991476059 0.4498477876186371 -0.07574650645256042 0.04251808300614357 0.39828866720199585 -0.636264443397522 -0.115643210709095 0.23387858271598816 -0.42736953496932983 0.06199318543076515 0.12040318548679352 -0.20018243789672852 0.010246177203953266 0.7339202165603638 -0.3087150752544403 -0.04154793545603752 -0.002572271041572094 -0.22700385749340057 0.6811392903327942 0.4943278729915619 -0.15777385234832764 -0.24739152193069458 -0.39189258217811584 -0.7194548845291138 0.08577156811952591 0.006220324896275997 0.6743627190589905 -0.26708388328552246 0.38534045219421387 -0.6980147957801819 -0.7151666879653931 -0.04977785795927048 -0.06738226115703583 0.4129983186721802 -0.07091189175844193 -0.14000917971134186 -0.5180813074111938 -0.13619717955589294 -0.14753270149230957 -0.9195082783699036 -1.0942426919937134 -0.2872960865497589 0.2617329955101013 -0.3345344662666321 0.5543485879898071 -0.05259738489985466 -0.22881555557250977 -0.13271282613277435 -0.2598392069339752 0.0023226363118737936 -0.3856808841228485 -0.10349509119987488 -0.08012013137340546 0.040326204150915146 0.11963243037462234 -0.1812249720096588 0.049525465816259384 0.06255986541509628 -0.02291172184050083 0.04198009520769119 0.1349719762802124 0.5562930107116699 -0.1701352894306183 0.26199889183044434 0.4728708267211914 0.47067657113075256 0.1159166768193245 -0.6635238528251648 -0.39056113362312317 0.6174989938735962 0.4475262761116028 -0.24194370210170746 0.029315607622265816 0.11846023797988892 -0.2510605454444885 -0.10901479423046112 -0.23059028387069702 0.9432953596115112 0.0022297920659184456 0.2292594313621521 -0.23784327507019043 -0.7334187030792236 -0.5705535411834717 -0.1543048769235611 -0.35715451836586 -0.08217909932136536 0.1624930202960968 -0.3762398064136505 0.421617329120636 0.26735103130340576 1.1209725141525269 -0.16943597793579102 -0.15839102864265442 0.46795713901519775 -0.528247058391571 0.21680337190628052 -0.24131448566913605 0.6911992430686951 0.5352391600608826 -0.06796319782733917 -0.34490442276000977 0.3466165065765381 0.06387166678905487 0.48137927055358887 -0.3188830018043518 -0.11949840933084488 -0.09985329955816269 0.18996164202690125 -0.3224341571331024 0.017342565581202507 1.2197937965393066 -0.2828176021575928 0.039404600858688354 0.08749919384717941 0.3464609980583191 -0.029663173481822014 0.3438943028450012 0.45498108863830566 0.32908543944358826 0.07084361463785172 0.020091231912374496 -0.21507838368415833 -0.8821706771850586 -0.06856895238161087 0.703640878200531 -0.48802581429481506 -0.6856299638748169 -0.9275408387184143 -0.2527550458908081 0.10201476514339447 1.2827736139297485 -0.10677957534790039 -0.28134775161743164 -0.3580717146396637 0.1501578837633133 0.18818645179271698 0.31705573201179504 -0.5026307702064514 0.3084324300289154 -0.11375391483306885 0.7207814455032349 -0.4481355547904968 -1.0114895105361938 -0.45174551010131836 -0.041475847363471985 -0.15369705855846405 0.641631543636322 -0.07557513564825058 0.25681403279304504 -0.8472740650177002 -0.28013744950294495 -0.2902345061302185 0.49562710523605347 -0.24591317772865295 1.0234770774841309 0.13207004964351654 0.7236515879631042 -0.4419657289981842 0.0050440081395208836 -0.16124702990055084 0.7891790270805359 0.2247818410396576 -0.1324993073940277 -0.47509998083114624 -0.4630071818828583 0.314725786447525 -0.10630778968334198 0.3603467643260956 0.03494393825531006 -0.8869776129722595 -0.6302246451377869 -0.17714238166809082 -0.3222065269947052 -0.18060968816280365 -0.13722766935825348 0.10300377011299133 -0.032894134521484375 0.3096180260181427 0.09548136591911316 3.4767746925354004 -0.3832968473434448 0.44327297806739807 -0.03878306597471237 -0.5773031711578369 0.9375139474868774 0.8604925274848938 0.1242532879114151 -0.21673312783241272 -0.621595025062561 0.2879478335380554 -1.0074008703231812 -0.2576000690460205 -0.07330439239740372 0.03590008616447449 -0.1542479693889618 -0.04059761390089989 -0.06948267668485641 -0.6051583886146545 -0.2185813933610916 -0.04879051074385643 0.79018235206604 -0.008412035182118416 -0.8747369050979614 0.37371617555618286 0.2889299988746643 -0.040994491428136826 1.126947283744812 0.03467892110347748 0.1895654797554016 0.47432148456573486 -0.7347297668457031 0.5014181733131409 0.539825439453125 0.5935765504837036 -0.047023456543684006 0.39682537317276 -0.5342302918434143 0.38847631216049194 -0.1883544772863388 0.2849715054035187 0.4832767844200134 0.28244972229003906 0.4810432195663452 -0.18305817246437073 0.07053316384553909 -0.6342051029205322 0.11206267029047012 -0.2727568447589874 0.15208551287651062 -0.7886026501655579 -0.5548614263534546 -0.417427659034729 -0.44896242022514343 0.26736119389533997 -0.28292202949523926 0.12526355683803558 0.2991977035999298 0.1372242271900177 0.2921093702316284 0.36558616161346436 0.6887011528015137 0.23655085265636444 0.8696607351303101 0.015598305501043797 -0.5712976455688477 -0.3089629113674164 0.4319356381893158 -0.4785301685333252 -0.2734560966491699 0.4638982117176056 -0.20984767377376556 0.1667996644973755
O -0.18507112562656403 0.11883430182933807 0.40495750308036804 -0.0028291703201830387 0.1887114942073822 -1.125199556350708 0.39808276295661926 -0.34915825724601746 -0.4611935019493103 0.3325669467449188 -0.22581101953983307 0.16521406173706055 0.21490682661533356 -0.49656015634536743 1.003851294517517 -0.2665500342845917 0.1890134960412979 0.5928788781166077 0.009519018232822418 0.03397420421242714 0.6011922955513 0.324407160282135 -0.2667728066444397 -0.28996214270591736 0.662215530872345 0.14261667430400848 -0.4128035306930542 -0.2006325125694275 0.30492082238197327 0.5706255435943604 -0.011879216879606247 -0.5678664445877075 -0.5371697545051575 0.057884711772203445 -0.05772513896226883 -0.5174521207809448 0.3928344249725342 -0.488101601600647 -0.48513901233673096 0.2003513127565384 0.050974320620298386 -0.3038368225097656 -1.4169838428497314 -0.2496652901172638 -0.5316029787063599 0.49077826738357544 0.4205067753791809 0.2217143326997757 -0.25185805559158325 0.37099748849868774 0.8057578802108765 8.489410400390625 0.3383212387561798 0.5127062201499939 -0.12866966426372528 0.05358235538005829 0.42461034655570984 -0.08495070785284042 0.21250267326831818 -0.22472557425498962 -0.4841007888317108 -0.2691377103328705 -0.018222538754343987 0.3557364046573639 0.6211022734642029 -0.8323314785957336 0.9517225027084351 -0.11930812895298004 0.4236120283603668 0.104685477912426 0.4411064088344574 -0.582350492477417 -0.5821139216423035 0.42983418703079224 0.3002175986766815 -0.39888501167297363 -0.11257471144199371 0.6137804388999939 -0.20425660908222198 0.05966324731707573 -0.17328305542469025 0.07578502595424652 -0.6405274868011475 -0.45283398032188416 -0.5394230484962463 0.6650949120521545 -0.524553120136261 0.38533109426498413 0.4205966889858246 0.30473122000694275 0.3309823274612427 -0.10194262117147446 -0.6217172741889954 0.2643638253211975 1.0438761711120605 0.24532410502433777 0.7511906623840332 -0.5907803773880005 0.18478301167488098 0.7548985481262207 -0.6540866494178772 -0.6778135895729065 0.029463471844792366 0.07520163804292679 0.23033234477043152 0.6113833785057068 -0.2462780922651291 0.6700101494789124 -0.4537507891654968 -0.1890769749879837 -0.8994925618171692 0.5356853604316711 -0.3114629089832306 -0.512047529220581 -0.7280914187431335 0.6066875457763672 0.306205153465271 0.39334186911582947 0.7893087863922119 0.05565193295478821 -0.19007521867752075 -0.05557576194405556 0.5864970684051514 -0.7827428579330444 0.4865518808364868 -0.2543058693408966 0.4774110019207001 -0.011906241998076439 0.020864106714725494 0.37656885385513306 0.2517351508140564 -0.03546304255723953 -0.2215031236410141 -0.32687506079673767 0.5073917508125305 -0.2476625144481659 0.9074608087539673 -0.2268822193145752 0.19532375037670135 -0.2089870274066925 0.5286405086517334 -0.364085853099823 -0.5955036282539368 0.6857432126998901 -0.2528965175151825 0.47314655780792236 0.5503588318824768 -0.10507839918136597 -0.11406660079956055 0.09473101794719696 -0.0315815694630146 0.22807751595973969 -0.04489912465214729 0.4802389144897461 0.08178947865962982 0.2580445110797882 -0.6252730488777161 -0.531663715839386 -0.568816065788269 0.7002857327461243 -0.31218650937080383 0.43685656785964966 0.3115064203739166 0.11656765639781952 0.10629954189062119 -0.3164207637310028 0.48016268014907837 0.10737431049346924 0.3800659477710724 -0.2089521288871765 -0.18434661626815796 0.06323743611574173 0.3903677463531494 -0.07230804115533829 -0.6823122501373291 0.04393887519836426 -0.4167958199977875 0.10575664788484573 0.3135424256324768 -1.2220814228057861 -0.8243316411972046 0.1942369043827057 0.09273688495159149 0.7049728035926819 0.46367940306663513 0.14677956700325012 -0.1515328735113144 -0.560741126537323 0.4166024625301361 -0.24809959530830383 -0.7503793239593506 -0.45068079233169556 0.4419547915458679 -0.7148182988166809 0.29752054810523987 0.31845471262931824 -0.32575759291648865 -0.11232008039951324 -0.0967901200056076 -0.45196452736854553 -1.0804892778396606 -0.27219921350479126 -0.2673816382884979 0.8143799304962158 -0.04365326464176178 0.5490759611129761 -0.1386498063802719 0.3249956965446472 -0.1091395765542984 0.01983756385743618 -0.33913880586624146 -0.1438399702310562 0.01944464072585106 1.046441674232483 0.09538491815328598 0.3954606354236603 -0.4746667742729187 0.010550684295594692 0.3116258680820465 -0.4871296286582947 -0.0844365730881691 -0.31491249799728394 0.6234333515167236 -0.47438812255859375 -0.2754839360713959 0.04623546823859215 -0.33650684356689453 0.33880308270454407 -0.3337845206260681 -0.26969000697135925 -0.6655476689338684 0.09870421141386032 -0.6828914880752563 0.7925541996955872 1.1004750728607178 0.7109743356704712 0.03662928566336632 -0.09115807712078094 -0.048775285482406616 -0.20419129729270935 0.2657731771469116 0.40598636865615845 -0.12054659426212311 -0.4596976637840271 -0.15932601690292358 -0.2096746265888214 -0.061162929981946945 0.08653520792722702 0.4769710600376129 0.23210062086582184 0.0031073959544301033 -0.4093809723854065 0.6651707291603088 -0.3079909086227417 -0.7647409439086914 0.43245750665664673 -0.12065417319536209 -0.2765309810638428 -0.10195442289113998 0.09821033477783203 -0.08132574707269669 -0.715640127658844 0.25093385577201843 0.06099162623286247 -0.047008588910102844 -0.16939042508602142 -0.3445834517478943 -0.143672376871109 -0.05963469669222832 0.494812935590744 -0.4546336233615875 0.16938135027885437 -0.18561184406280518 -0.23292499780654907 0.380588173866272 -0.047432027757167816 0.38736531138420105 0.1170303001999855 -0.21812285482883453 0.550811767578125 -0.014022617600858212 -0.2055017501115799 0.42317673563957214 0.00792450550943613 -0.12967440485954285 0.08793170005083084 0.029329955577850342 0.2540821135044098 0.0935794785618782 -0.942638099193573 -0.21900232136249542 -0.675040602684021 0.10094744712114334 -0.004843120463192463 1.244778037071228 -0.17494618892669678 -0.04129801690578461 0.27080148458480835 0.24742786586284637 0.3646986782550812 -0.12007081508636475 0.07823224365711212 0.128673255443573 0.8474829196929932 0.5522494912147522 -0.05948327109217644 0.5151771306991577 0.29794901609420776 -0.3972640335559845 -0.42444032430648804 -0.22973118722438812 -0.4307427704334259 0.5218228697776794 -0.6014858484268188 -0.7699682712554932 -0.2422143816947937 0.20233067870140076 -0.18002021312713623 0.4055839776992798 0.09654863178730011 0.36101868748664856 0.07547082751989365 -0.18768075108528137 0.7552334666252136 0.34853219985961914 -0.15944907069206238 -0.714097261428833 0.27113643288612366 0.22400349378585815 0.5297467708587646 -0.2140064537525177 -0.2672552764415741 0.02791030891239643 0.9933914542198181 0.2238067239522934 0.39418959617614746 0.650142252445221 -0.07135337591171265 -0.9322724342346191 -0.49694308638572693 0.15497276186943054 -0.4410592317581177 -0.14439091086387634 -0.2512732446193695 -0.6472707390785217 -0.46964338421821594 0.42904630303382874 -0.2931549847126007 0.4281710386276245 0.01095245685428381 -0.8522847294807434 0.5038626194000244 -0.6764723658561707 -0.11077196151018143 -0.4414602518081665 0.18120712041854858 0.2873530983924866 0.1827220469713211 0.046098414808511734 0.40099942684173584 0.12166909128427505 -0.33537957072257996 -0.18838489055633545 0.6370863318443298 0.11673148721456528 -0.013551263138651848 -0.309990793466568 -0.014567511156201363 0.09316736459732056 -0.28826525807380676 -0.19184806942939758 -0.774296224117279 0.9381805062294006 -0.02851162664592266 0.2562278211116791 -0.2060721069574356 -0.633006751537323 0.5686952471733093 0.8181092739105225 0.13749411702156067 -0.17567041516304016 -0.26765623688697815 -0.5807593464851379 -0.5645365715026855 0.33266597986221313 -0.1753724366426468 1.1104899644851685 -0.7201918363571167 -0.019750820472836494 -0.09172455966472626 0.3102268576622009 0.0324077345430851 -0.39507225155830383 -0.6661475896835327 -0.5488568544387817 0.06928108632564545 0.6151201725006104 -0.15832209587097168 0.09468799084424973 0.07441511005163193 0.27780789136886597 -0.06308421492576599 -0.31579551100730896 -0.021044284105300903 -0.35498255491256714 -0.5644738674163818 0.052994899451732635 0.2688983380794525 0.23076267540454865 -0.2938697040081024 -0.3492889404296875 0.286830872297287 -0.04596680775284767 -0.6990337371826172 0.32577288150787354 -0.2091784030199051 0.4066620469093323 -0.9864317178726196 0.3350374102592468 -0.01433731522411108 -0.037960585206747055 0.12152015417814255 0.184462308883667 0.38536524772644043 0.9477803707122803 0.03371008113026619 0.18228447437286377 0.5631293654441833 -0.9112536907196045 -0.35030242800712585 0.199746772646904 -0.7632153034210205 -0.009964481927454472 0.15723633766174316 0.6459535360336304 -0.0027920790016651154 0.16609451174736023 -0.053434014320373535 -0.3477664589881897 0.11999976634979248 -0.24121980369091034 -0.24680177867412567 0.8578354716300964 0.5166950821876526 -0.6711257100105286 -0.3536762297153473 0.3147531747817993 -0.4983578324317932 -0.15101826190948486 0.043026845902204514 0.3928145468235016 -0.8198439478874207 -0.7135721445083618 0.3147490322589874 0.1396491825580597 -0.523050844669342 -0.2552681565284729 0.04499693587422371 -0.4464762508869171 -0.34973135590553284 -0.362531840801239 -0.001514740870334208 -1.0094144344329834 -0.135785773396492 0.217217817902565 0.09239944815635681 0.06147541105747223 -0.5937315821647644 0.6433355212211609 -0.5009415745735168 -0.2339382767677307 -0.08552206307649612 -0.01525306049734354 -0.19957880675792694 -0.519615113735199 -0.3090822994709015 -0.5464394688606262 -0.2864310145378113 -1.6924952268600464 0.16705825924873352 -0.1467062383890152 -0.7627790570259094 -0.16373701393604279 -0.19828632473945618 0.07582513242959976 0.002553938189521432 -0.25920605659484863 -0.6203485131263733 0.030458511784672737 0.01674851030111313 -0.8401693105697632 -0.26585739850997925 0.7567484378814697 0.1442127823829651 -0.21971967816352844 0.13670021295547485 -0.11813189089298248 -0.11867069453001022 -0.5034046173095703 0.585399866104126 -0.6670655608177185 0.19467440247535706 0.24032258987426758 -0.750424861907959 -0.9035783410072327 0.4096730053424835 -0.22297407686710358 -0.02661103568971157 0.061867278069257736 0.15788620710372925 0.6868861317634583 -0.5539223551750183 -0.4065115451812744 0.0645567998290062 0.11185136437416077 -0.3667398691177368 0.1618681102991104 1.1204676628112793 0.4688272178173065 -0.07532079517841339 0.13908527791500092 -0.30004197359085083 0.5070444345474243 -0.007630709558725357 0.2508710026741028 0.20900477468967438 0.37079256772994995 -0.04995682090520859 0.524029552936554 0.6261152625083923 0.11002087593078613 0.06164899468421936 -0.0983000174164772 -0.18550340831279755 0.3543333411216736 0.2872420847415924 -0.47077351808547974 0.0781833678483963 -0.7607003450393677 0.02006424404680729 -0.017305314540863037 -0.07862371951341629 0.6278111934661865 -0.11147410422563553 -0.00028491613920778036 0.06194239482283592 -0.4387400150299072 0.2806277573108673 0.5867039561271667 0.11923667043447495 -0.6842005848884583 -0.5382292866706848 -0.0017836306942626834 -0.2814483642578125 0.29119014739990234 -0.6026355624198914 -1.0836821794509888 0.10756034404039383 0.06775088608264923 -0.43178659677505493 -0.700437068939209 0.25811412930488586 -0.12134929746389389 -0.38848721981048584 -0.6959713697433472 -0.39184266328811646 -0.4732886254787445 -0.21723413467407227 0.07710395753383636 -0.032070815563201904 0.1290964037179947 0.1870066374540329 0.3360195755958557 0.19702887535095215 0.5765828490257263 0.07397743314504623 0.16777150332927704 -0.11787000298500061 0.35663241147994995 -0.7355319857597351 0.2518904507160187 -0.4174564480781555 0.004577709827572107 0.11559834331274033 -0.10884111374616623 0.5585113763809204 0.14892473816871643 0.022455263882875443 0.1098049134016037 0.006200618110597134 -0.6322112083435059 1.0736356973648071 0.37673068046569824 0.3871549963951111 -0.44444572925567627 -0.32624927163124084 0.20593522489070892 -0.4303673803806305 -0.4316022992134094 0.05229334160685539 0.5315606594085693 0.01701660268008709 -0.7541048526763916 0.3542792797088623 0.0281523447483778 -0.4691838324069977 1.2037670612335205 -0.2536078095436096 -0.32032641768455505 -0.17146119475364685 -0.22431312501430511 0.20462192595005035 0.5803084373474121 -0.016507206484675407 -0.29656895995140076 0.029469726607203484 -0.7292718887329102 -0.13602232933044434 0.06323587149381638 0.09378242492675781 0.2079392522573471 -0.33737438917160034 1.062313199043274 0.0174852404743433 -0.011568162590265274 -0.16485869884490967 0.22081595659255981 -0.17845967411994934 0.33356350660324097 -0.4798574447631836 -0.12588854134082794 -0.4191585183143616 0.19750483334064484 0.47745591402053833 -0.09861228615045547 -0.2369619905948639 0.1057705283164978 -0.4399334490299225 -0.328721821308136 0.4810626804828644 0.1264469474554062 -0.37773048877716064 0.12721683084964752 -0.5164476037025452 0.1450234353542328 0.07384342700242996 0.8242126107215881 -0.14039246737957 0.6222627758979797 0.05047496408224106 0.4457843601703644 -0.48282015323638916 0.2677804231643677 -0.7652807235717773 -0.11503156274557114 -0.0501764677464962 0.7518339157104492 -0.696876585483551 -0.902057409286499 -0.20398643612861633 0.11390161514282227 -0.06754081696271896 1.192832350730896 -1.5559418201446533 0.45022591948509216 -0.5255473256111145 0.03446093201637268 0.18660812079906464 -0.08456860482692719 -0.1895729899406433 0.181067556142807 -0.7447113990783691 0.9172865748405457 0.07384318858385086 -0.7149144411087036 0.28396159410476685 0.1529102921485901 -0.5741683840751648 0.3769949972629547 0.2564569413661957 -0.026929952204227448 -0.018267855048179626 -0.6333106160163879 -0.36514031887054443 -0.08995464444160461 -0.6357226967811584 0.08087608218193054 0.014673247933387756 -0.5362945199012756 0.01531735248863697 -0.3289669454097748 0.7148077487945557 0.15331044793128967 0.07985654473304749 -0.06717896461486816 2.2031075954437256 0.013949545100331306 0.4825356602668762 0.6319621801376343 -0.015111635439097881 0.06767528504133224 0.8408471941947937 -0.37091538310050964 -0.31395354866981506 0.03433799743652344 -0.15684525668621063 -0.5710935592651367 0.7685626745223999 0.1191568598151207 -0.1768249124288559 0.3099114000797272 -0.268001526594162 0.5732392072677612 0.436862051486969 0.052421893924474716 -0.2912766635417938 -0.22376888990402222 -0.1204390749335289 0.48942631483078003 -0.276596337556839 0.10134376585483551 -1.304855227470398 0.5636349320411682 -0.4344733953475952 0.3839762210845947 0.5857523083686829 -0.6413596272468567 -0.14288222789764404 0.193045511841774 0.17344240844249725 -0.00018205631931778044 -0.19260208308696747 -0.21700911223888397 0.17288678884506226 -0.37870052456855774 -0.17581644654273987 -0.30544281005859375 -0.3915790319442749 0.537258505821228 0.4248986840248108 -0.2700681686401367 -0.36661937832832336 -0.0945509523153305 -0.7401297092437744 -1.0651700496673584 -0.5674325823783875 -0.24642281234264374 -0.6832914352416992 -0.05472024157643318 0.7528871893882751 0.12078803777694702 -0.16698233783245087 1.3442577123641968 -0.17356093227863312 0.07266338169574738 -0.2263239473104477 0.9904532432556152 -1.1818753480911255 -0.17545545101165771 -0.25529351830482483 0.21998335421085358 -0.4461080729961395 -0.49102047085762024 -0.34240463376045227 0.3228863477706909 0.14121797680854797 -0.04413570836186409 0.003782064188271761
хоб -0.2796149253845215 -0.038553256541490555 -0.3625950217247009 -0.1884768009185791 0.08872605860233307 -0.45019763708114624 -0.36097556352615356 0.2321079820394516 -0.3410879969596863 0.5345552563667297 -0.032189853489398956 -0.0261662807315588 1.0315197706222534 -0.433201402425766 -0.5176089406013489 0.1568409651517868 0.42964211106300354 0.21970978379249573 0.10445217043161392 0.40885353088378906 0.18703769147396088 0.3488454222679138 -0.2720886468887329 0.24431750178337097 0.3043891191482544 0.011740630492568016 -0.5906304121017456 -0.5954563617706299 1.3929942846298218 -0.3104313611984253 -0.5965989828109741 -0.2755942940711975 -0.6533059477806091 0.39024871587753296 0.11439166218042374 -0.26808205246925354 -0.27648231387138367 0.13614396750926971 -0.5955076813697815 0.36054500937461853 0.34452879428863525 0.053725335747003555 -0.08345072716474533 -1.7169841527938843 -0.5050342679023743 -0.19312801957130432 -0.20790952444076538 0.01484947744756937 -0.04729190841317177 0.5621660947799683 0.37342575192451477 8.784947395324707 0.1547403335571289 0.07479353249073029 0.07835892587900162 0.7684532999992371 0.02933676727116108 -0.017927009612321854 -0.16198374330997467 -0.01823316514492035 -0.8778615593910217 0.451553076505661 0.16332899034023285 0.062135349959135056 -0.06849705427885056 0.21527308225631714 0.2576224207878113 -0.023666730150580406 0.37994179129600525 0.46252715587615967 0.1548321396112442 0.018678007647395134 -0.048109833151102066 0.09615115821361542 -0.782221257686615 -0.0367785282433033 -0.20561261475086212 0.717973530292511 -0.2775355577468872 -0.04689520224928856 0.05739032104611397 0.09874602407217026 -0.23801133036613464 -0.3004535436630249 0.26336732506752014 -0.0665987953543663 -0.42458751797676086 -0.6269813776016235 0.5133565068244934 0.9754467010498047 -0.8778903484344482 -0.5234382152557373 -0.1748647689819336 0.17302866280078888 0.8791736960411072 0.3141183853149414 0.6095714569091797 -0.19205862283706665 0.058645229786634445 0.7600868344306946 -0.20131133496761322 -0.17513997852802277 0.07682232558727264 0.054700687527656555 0.005674984771758318 0.7971609830856323 0.4362691342830658 -0.07067658752202988 0.21278125047683716 -0.25660523772239685 -0.40456175804138184 -0.3037266433238983 0.2737277150154114 -0.08567116409540176 -0.5369918942451477 -0.47560420632362366 -0.06341101974248886 0.14609460532665253 -0.29143646359443665 -0.014609994366765022 -0.3709311783313751 -0.25593483448028564 -0.1474900245666504 -0.4073232114315033 0.5044779777526855 -0.8447179198265076 -0.08234833180904388 -0.5105084180831909 -0.2788996994495392 0.21012961864471436 -0.364397257566452 0.3640361726284027 -0.1608366221189499 -0.4343036711215973 0.8196564316749573 -0.26283276081085205 0.2939344644546509 -0.33910396695137024 -0.4273609519004822 -0.23873108625411987 0.6206259727478027 -0.5194001197814941 0.03028273396193981 0.6898980140686035 0.41763073205947876 0.06929033249616623 -0.1808680295944214 0.39208853244781494 -0.5421274900436401 -0.1942186802625656 -0.06389601528644562 0.21107690036296844 0.04456060379743576 0.47735852003097534 -0.009530946612358093 -0.03182697296142578 0.156643345952034 -0.781549870967865 -0.6992921233177185 0.46176373958587646 -0.12567947804927826 -0.33028969168663025 0.32938748598098755 0.09320396929979324 -0.3302953541278839 -0.3970983922481537 -0.5828167200088501 -0.0799131914973259 0.6891180872917175 -0.44186946749687195 -0.9014908075332642 -0.6945165395736694 0.08945994079113007 -0.08537118881940842 -0.4459648132324219 -0.18442568182945251 -0.40873271226882935 -0.563590943813324 0.31991034746170044 -0.440132200717926 -0.9207026362419128 0.13709397614002228 0.4392257034778595 0.7323043346405029 -0.08055943250656128 0.22396224737167358 -0.28065812587738037 0.0660543441772461 -0.012757472693920135 -0.26522499322891235 0.1903163194656372 -0.13513021171092987 -0.2086847871541977 0.07243663817644119 0.20967566967010498 0.10315286368131638 -0.45283085107803345 -0.3418903946876526 -0.06760164350271225 0.18562623858451843 -0.7854998707771301 -0.18603360652923584 -0.5998743772506714 0.44394272565841675 0.28426048159599304 1.0298737287521362 0.02096174843609333 -0.9904558658599854 -0.011272257193922997 0.32521700859069824 -0.4421260356903076 -0.475227028131485 0.33726054430007935 -0.4559335708618164 0.5500742197036743 0.29071706533432007 0.09839838743209839 0.2727736830711365 0.1506740301847458 -0.15637202560901642 0.129399374127388 -0.09023919701576233 -0.22207950055599213 -0.27331429719924927 -0.2766485810279846 0.3484388589859009 -0.43088752031326294 -0.2581447958946228 -0.21857735514640808 -0.711462676525116 -0.7720373272895813 0.2615283727645874 -0.30772852897644043 0.6360306739807129 0.13344813883304596 0.3588903546333313 0.041040271520614624 -0.15572190284729004 -0.9796085953712463 0.1022135391831398 0.5810069441795349 0.5550330281257629 -0.2852431535720825 0.23572660982608795 -0.17739342153072357 0.49541106820106506 -0.13160891830921173 0.2902027368545532 -0.32098501920700073 0.10161484032869339 -0.5607703924179077 -0.462930828332901 0.5130380988121033 -0.532906711101532 -0.23109936714172363 1.091235876083374 0.1203722283244133 -0.2502259612083435 0.23449532687664032 0.08613491803407669 0.11959846317768097 -0.8237836360931396 0.05408870428800583 0.5867794156074524 -0.05677822232246399 -0.5281927585601807 0.25030577182769775 -0.48795607686042786 0.29120755195617676 -0.3436591327190399 -0.17627254128456116 0.5113820433616638 0.7240924835205078 0.1619388312101364 0.07511664927005768 -0.18216481804847717 0.2844623327255249 -0.2815089523792267 -0.5027146935462952 0.1488277167081833 0.12883086502552032 -0.18597868084907532 -0.0977589562535286 -0.020154567435383797 -0.6881444454193115 0.536310613155365 -0.0691540390253067 -0.16793306171894073 0.4327581822872162 -0.81113600730896 0.20859308540821075 -0.7418206334114075 -0.13120011985301971 0.016180384904146194 1.543931484222412 -0.37986689805984497 -0.02601313218474388 0.1745728999376297 -0.5535673499107361 -0.13334187865257263 -0.07511710375547409 -0.28479188680648804 -0.7964726090431213 0.7432016134262085 0.4298551380634308 0.2748841643333435 0.16723529994487762 -0.029279058799147606 -0.031719308346509933 -0.2959587574005127 0.33387133479118347 -0.2583787441253662 0.15271390974521637 -0.04881703853607178 -0.984977662563324 0.062498170882463455 -0.4590328335762024 -0.5813775658607483 0.10657268762588501 0.42228201031684875 0.09497637301683426 0.2624245584011078 0.016712935641407967 0.68376225233078 0.03615241125226021 0.34705668687820435 0.14338597655296326 0.2739124596118927 0.17449067533016205 1.0156701803207397 -0.15289777517318726 -0.07564572244882584 0.2543691396713257 0.5153304934501648 0.5188146233558655 0.7186641097068787 0.16407573223114014 -0.4037419855594635 -0.7745034694671631 -0.1401769071817398 -0.23971478641033173 0.3535316586494446 -0.37869399785995483 0.41923871636390686 -0.09216495603322983 0.18719053268432617 0.10495167970657349 -0.17473846673965454 0.43292126059532166 -0.4136170744895935 0.5941019654273987 0.2988790273666382 -0.5441660284996033 0.10520638525485992 -0.5819736123085022 -0.0729333907365799 -0.5020217895507812 -0.08944825083017349 0.24966223537921906 0.919128954410553 -0.4032186269760132 -0.03879556804895401 -0.4347742199897766 0.7988952994346619 0.04579814895987511 0.6098621487617493 -0.1507524847984314 0.03729801997542381 0.15604516863822937 -0.3446982204914093 0.0064399270340800285 -0.01637343503534794 1.201388955116272 0.20892220735549927 0.23138156533241272 0.29897341132164 -0.020618604496121407 0.31031715869903564 -0.0015227672411128879 -0.09164945036172867 -0.22173143923282623 -0.18194173276424408 -0.3067411780357361 -0.20686659216880798 -0.07137317210435867 -0.21234562993049622 0.42662590742111206 -0.049444299191236496 0.16233386099338531 -0.44990867376327515 0.07826394587755203 0.36915963888168335 -0.08893696218729019 -0.13825756311416626 0.39831483364105225 0.3396971821784973 0.529242217540741 -0.32785141468048096 -0.5747932195663452 0.37609267234802246 1.0587923526763916 0.19562160968780518 -0.5785768628120422 -0.44081953167915344 0.22194640338420868 -1.1594326496124268 0.3617253005504608 0.328044056892395 0.7270114421844482 -0.48385581374168396 -0.3059873580932617 0.37734028697013855 0.46382758021354675 -0.22686536610126495 0.3399326503276825 -0.09015306830406189 -0.27132025361061096 -1.0108801126480103 0.7426626682281494 0.08749278634786606 0.22729578614234924 0.6409947872161865 0.12355220317840576 -0.14461253583431244 0.43489304184913635 -0.24639374017715454 -0.08767018467187881 -0.8268468379974365 -0.5781281590461731 -0.4592210054397583 -0.23358432948589325 -0.3848007023334503 -0.5241665244102478 0.2107958346605301 -0.21409939229488373 0.043787986040115356 -0.23896490037441254 0.006203328724950552 -0.7811673879623413 -0.006734211929142475 -0.6294879913330078 0.20221133530139923 0.3820728361606598 0.03664849326014519 0.05299919843673706 0.09087134152650833 0.16485784947872162 -0.08790551871061325 0.0765562504529953 -0.09029669314622879 0.7223011255264282 0.3570282757282257 -0.6184329390525818 0.1981038898229599 -0.3514753580093384 -0.21879197657108307 0.21714526414871216 0.0710466131567955 0.13422471284866333 0.35074397921562195 -0.24784459173679352 0.24577844142913818 -0.37626615166664124 -0.6252190470695496 0.28141555190086365 0.1526106745004654 0.006841484922915697 -1.2185765504837036 0.7473574876785278 -0.3355633020401001 0.7368510961532593 -0.06238990277051926 -0.31330040097236633 0.24078071117401123 -0.12316249310970306 -0.16928593814373016 -0.5190767049789429 -0.5188243389129639 -0.8045492768287659 -0.4307480454444885 -0.2182958573102951 -0.40323781967163086 -0.3489556610584259 -0.270293265581131 -0.5916405916213989 0.07910583168268204 -0.8963048458099365 -0.7200932502746582 0.05579785257577896 -0.4835849106311798 -0.857973039150238 -0.2489165961742401 0.7602444291114807 0.030005134642124176 -0.17942605912685394 -0.8405521512031555 -0.12249358743429184 0.38773292303085327 -0.47994092106819153 -0.17431092262268066 -0.332465261220932 0.3143922686576843 -0.23263588547706604 -0.236676424741745 -0.6076438426971436 0.46022456884384155 0.48524007201194763 0.06032872572541237 -0.0914844498038292 -0.38328179717063904 0.016295278444886208 -0.7405117154121399 -0.583264172077179 0.956794798374176 0.42385491728782654 -0.375429630279541 0.3570363223552704 -0.9785917401313782 0.4817357659339905 -0.5695416331291199 0.1838296502828598 -0.832886278629303 0.786629855632782 0.398491233587265 -0.2886057496070862 -0.7360519766807556 0.9961665272712708 0.08851047605276108 -0.13436169922351837 0.04791887104511261 0.5681321620941162 0.035452380776405334 0.5104786157608032 -0.379984587430954 -0.07359184324741364 -0.14087526500225067 0.4196409285068512 -0.40778008103370667 -0.822941243648529 -0.3036421537399292 -0.09968669712543488 -0.2169957458972931 0.6332869529724121 0.7977117300033569 -0.427676796913147 -0.37256211042404175 -0.2707650065422058 0.23431821167469025 0.49544158577919006 0.565499484539032 0.4477335810661316 -0.35571974515914917 0.13231921195983887 0.3942013084888458 0.35675716400146484 -1.0027031898498535 -0.6289821863174438 -0.007136701140552759 0.3213813006877899 -0.11860688775777817 -0.4944441616535187 0.2492305189371109 0.24549777805805206 0.09143469482660294 0.7864397168159485 -0.08113635331392288 -0.1415165811777115 0.0010928314877673984 -0.023228975012898445 0.05482086166739464 -0.4803779721260071 -0.5025692582130432 -0.2739041745662689 -0.17010460793972015 0.3261434733867645 0.26392504572868347 0.6877954006195068 0.09283556044101715 -0.3311261534690857 -0.7124735713005066 0.15001221001148224 -0.19984354078769684 -0.3710051476955414 -0.3758520185947418 0.6558891534805298 0.4653564691543579 0.3143462538719177 -0.1138080507516861 0.22859850525856018 0.29818806052207947 -0.16228382289409637 0.4675177335739136 -0.1515260636806488 0.2894801199436188 -0.19174490869045258 0.06564095616340637 0.44143691658973694 -0.7867981791496277 -0.3332024812698364 -0.10259434580802917 -0.2608407735824585 -0.031118711456656456 -0.5928066372871399 0.08570273965597153 0.7873289585113525 0.5476101040840149 0.6049558520317078 0.3396662473678589 -0.3869520127773285 -0.07567743957042694 -0.21695804595947266 -0.867954671382904 0.28593504428863525 -0.2915214002132416 -0.6189208626747131 -0.783077597618103 -0.024429574608802795 0.25932037830352783 -0.70516037940979 0.42210984230041504 -0.13557717204093933 -0.8386573791503906 1.1071374416351318 -0.1774216890335083 -0.11576453596353531 0.4330439269542694 0.6520340442657471 0.023637808859348297 0.11512485146522522 -0.5450849533081055 0.2550314664840698 -0.20352143049240112 0.055359579622745514 0.36806800961494446 -0.03421130031347275 0.07389569282531738 0.1412028670310974 -0.31595852971076965 -0.38856786489486694 -0.11935821920633316 0.39796343445777893 0.03266170248389244 0.008820649236440659 -1.2838457822799683 0.2341209352016449 0.20030638575553894 -0.16925862431526184 0.16280066967010498 0.35538238286972046 0.5075973272323608 0.3471897542476654 0.07544897496700287 -0.2334594428539276 -0.5354897379875183 0.7378996014595032 0.17740416526794434 0.43088671565055847 -0.21659357845783234 -0.6156156659126282 -0.03354934602975845 0.1091543510556221 0.04624072089791298 0.49819841980934143 -1.1685593128204346 -0.07439225912094116 -0.5512784719467163 0.34968167543411255 0.2993207573890686 0.2397516965866089 -0.4906531572341919 0.3897644877433777 0.42898279428482056 0.013708914630115032 -0.3361732065677643 -0.25572916865348816 0.7000465989112854 0.3839048445224762 -0.05721116438508034 0.42871347069740295 -0.2570669949054718 0.37153202295303345 -0.13206471502780914 0.8728535175323486 0.06955014169216156 0.1359151303768158 -0.43590909242630005 0.12966777384281158 -0.20509843528270721 0.0748327374458313 0.3759303390979767 -0.3069652318954468 0.10109995305538177 -0.07647351175546646 0.3866655230522156 0.046837929636240005 1.7875968217849731 -0.5309333205223083 0.131623312830925 0.6097264885902405 -0.06354819983243942 0.5123375058174133 0.6167991757392883 -0.2690846025943756 -0.30748653411865234 0.44068700075149536 0.33963742852211 -0.24005429446697235 0.4091957211494446 -0.053595587611198425 0.380090594291687 -0.38434356451034546 0.6740050315856934 0.25240010023117065 -0.22571370005607605 0.6157618165016174 -0.16209395229816437 0.48696961998939514 0.3376927971839905 0.15108324587345123 -0.9604707360267639 -0.001170619041658938 -0.19243627786636353 0.3364938795566559 -0.32365456223487854 0.9118386507034302 0.08309439569711685 -0.39757654070854187 0.5332777500152588 -0.08441653102636337 -0.07188538461923599 -0.26191088557243347 0.3459330201148987 -0.2110188901424408 -0.20045346021652222 -0.29777786135673523 0.4359426498413086 -0.6249300241470337 0.19763995707035065 0.38170623779296875 0.7749152779579163 -0.7411244511604309 -0.795222818851471 1.033957600593567 -0.5100065469741821 -0.337757408618927 -0.8729379773139954 -0.6668347716331482 -0.9441346526145935 -0.3645297586917877 0.2601819932460785 -0.1901690512895584 0.008367059752345085 0.07952860742807388 0.15250469744205475 0.2981557548046112 -0.37613874673843384 0.5118724703788757 -0.8789359927177429 0.27718037366867065 0.15442043542861938 -0.2304607629776001 -0.8452104330062866 0.20793616771697998 -0.384082555770874 -0.3620683252811432 0.15277357399463654 -0.17926232516765594 0.21483081579208374
 -0.08507142215967178 0.4664561450481415 -0.09154299646615982 0.8713406920433044 -0.17567534744739532 -0.19957591593265533 0.05240356922149658 0.26010778546333313 -0.4544600248336792 0.3804853558540344 0.03987959399819374 0.3919501304626465 0.21097227931022644 -0.7544752955436707 -0.4627663791179657 -0.18788233399391174 -0.036324091255664825 -0.05804992839694023 -0.12370707839727402 -0.3045869469642639 0.2962504029273987 0.13045014441013336 -0.15624631941318512 -0.1505891978740692 -0.6600190997123718 0.2824476361274719 -0.5104549527168274 0.12329785525798798 -0.26085618138313293 0.02781922183930874 -0.41860881447792053 -0.5885933637619019 -0.22045792639255524 0.6388000249862671 0.05564331263303757 0.4939405918121338 0.177525594830513 -0.16220106184482574 0.08131543546915054 0.2892614006996155 0.07120314240455627 0.7403284907341003 -0.8321777582168579 0.17127034068107605 -0.5102048516273499 0.6180709600448608 -0.16762657463550568 0.5996723771095276 -1.0375910997390747 0.6045128703117371 0.19633378088474274 2.657095193862915 -0.0693051815032959 0.6196094155311584 0.2813943922519684 0.632892370223999 -0.2543945610523224 -0.023220431059598923 0.3308089077472687 0.41762328147888184 -0.21119055151939392 -0.27680861949920654 0.3285508155822754 -0.17106999456882477 -0.06713685393333435 -0.09295763820409775 -0.9219557046890259 0.03081238828599453 0.38718459010124207 0.15519492328166962 0.2790689170360565 -0.1938878297805786 -0.08073866367340088 0.5883251428604126 -0.2147284597158432 0.12614084780216217 0.31661468744277954 0.8060194849967957 -0.6924481391906738 0.12493059784173965 -0.39514556527137756 0.0989256203174591 0.13406910002231598 -0.689253568649292 -0.32919788360595703 0.5463180541992188 -0.2916865050792694 -1.2653028964996338 0.03444630280137062 -0.026321036741137505 -0.20272839069366455 -0.2912748456001282 -0.6069770455360413 0.5609384179115295 0.5286762118339539 -0.022371815517544746 0.32924211025238037 0.35123276710510254 -0.4152061939239502 0.11454790085554123 0.04241219535470009 -0.5345686078071594 -0.055184945464134216 -0.41778406500816345 0.41999682784080505 0.19823449850082397 -0.8050282001495361 0.3211425840854645 -0.08655952662229538 -0.07200634479522705 0.20973190665245056 -0.2859039306640625 -0.436565637588501 -0.13451741635799408 -0.4455677568912506 -0.11223407089710236 -0.23473037779331207 -0.08580616861581802 -0.018520016223192215 0.12104175984859467 0.1684551239013672 -0.21083013713359833 -0.27782922983169556 -0.7889359593391418 0.6970569491386414 -0.5033516883850098 0.1698797643184662 0.13933129608631134 -0.5432097911834717 0.6011984944343567 -0.07419732958078384 0.1645050048828125 -0.9255252480506897 -0.1259811520576477 0.7785777449607849 0.31044629216194153 -0.22625455260276794 0.20273296535015106 -0.2093784511089325 -0.4632064402103424 1.1222822666168213 -0.13790710270404816 -0.25493180751800537 -0.6513969302177429 0.25276538729667664 -0.2552930414676666 -0.24734565615653992 -0.18444719910621643 0.3366256058216095 0.4015558362007141 -0.004470214247703552 -0.26484569907188416 -0.12305448204278946 0.10412182658910751 0.21407833695411682 0.2805321514606476 -0.32334277033805847 -0.011861667968332767 -0.957270085811615 0.18402226269245148 -0.4259827733039856 0.19192561507225037 -0.10779107362031937 -0.5417749881744385 -0.21491189301013947 0.08740262687206268 -0.5535165071487427 -0.7991161942481995 0.7852351665496826 -0.6430249214172363 -0.5344597697257996 0.18112105131149292 -0.27244341373443604 0.2114270031452179 -0.37010717391967773 -0.5960803627967834 -0.16628634929656982 0.02605188637971878 -1.1216977834701538 -0.4307032823562622 -0.7536506652832031 -0.15287214517593384 -0.1705966591835022 -0.22312642633914948 0.060728322714567184 -0.40455177426338196 -0.3833617866039276 0.7067835330963135 -0.11502127349376678 0.5945547819137573 -0.7287724614143372 0.20526401698589325 -0.7085959315299988 0.007039712741971016 0.3280601501464844 0.7103593945503235 -0.10096423327922821 0.0820094645023346 -0.14300130307674408 -0.32885873317718506 0.3798356056213379 -0.07968955487012863 0.3824807107448578 0.8935214877128601 0.5528786778450012 0.6483451724052429 -0.4411260783672333 0.1922072470188141 0.5573034882545471 0.09941791743040085 -0.934040904045105 -0.6198728680610657 -0.6138556003570557 -0.0862668827176094 0.2499934434890747 -0.12037543207406998 -0.599833071231842 0.10804494470357895 0.10154658555984497 -0.4074358642101288 0.5159696340560913 -0.15165024995803833 -0.05257090553641319 -0.895082950592041 -0.3550735116004944 0.07801926136016846 -0.649006187915802 -0.08561974763870239 -0.32145920395851135 -0.39093533158302307 -0.263261079788208 -0.7091085314750671 -0.5284544229507446 -0.8245858550071716 0.40419358015060425 -0.24511116743087769 0.13907957077026367 0.3875883221626282 -0.7973252534866333 0.10032618790864944 0.015566299669444561 0.15361735224723816 -0.663375198841095 0.3640720248222351 -0.37936803698539734 -0.24711187183856964 -0.16935741901397705 -0.5195742845535278 0.40826019644737244 0.4737740457057953 0.6165875792503357 0.00212633004412055 0.6538095474243164 -0.07600946724414825 -0.2526785433292389 -0.029644373804330826 0.2116146832704544 -0.5645995736122131 -0.6806902289390564 -0.21646000444889069 0.29217633605003357 0.32424235343933105 1.3305128812789917 0.8718432188034058 -0.11525317281484604 0.04047976806759834 0.4301910698413849 -0.22846925258636475 -0.5402454733848572 -0.1643158346414566 0.3457684814929962 0.9887235164642334 0.012590999715030193 0.24928806722164154 0.19114109873771667 -0.5993055701255798 -0.24314400553703308 0.24494622647762299 -0.23573558032512665 -0.8414196372032166 0.3388538956642151 0.20539413392543793 -0.4641117751598358 -0.16768361628055573 -0.891411304473877 0.2979530692100525 -0.31707563996315 -0.2752344608306885 -0.6930952668190002 -0.5159426331520081 0.35129377245903015 0.3003769516944885 0.2681572437286377 0.10166782140731812 11.330817222595215 -0.7265885472297668 0.07555945217609406 0.09956637769937515 -0.27211543917655945 -0.1660391241312027 0.46204519271850586 -0.3478284478187561 -0.8216041922569275 0.30462825298309326 0.06305938214063644 0.03802553564310074 0.1610729992389679 0.20314323902130127 -0.10184772312641144 -0.16506695747375488 0.3862922787666321 -0.48396316170692444 0.39947450160980225 0.22860124707221985 -0.8092736005783081 0.48216477036476135 -0.6414250731468201 -0.37817808985710144 0.28755003213882446 0.31187382340431213 -0.0010486481478437781 -0.012425096705555916 0.8520699739456177 0.6252281665802002 -0.15235258638858795 -0.4356094300746918 -0.03976347669959068 0.31842944025993347 -0.014260400086641312 0.7186911106109619 0.7681957483291626 -0.29620999097824097 0.46951374411582947 0.7820568084716797 0.26805344223976135 0.26109999418258667 -0.3173021674156189 0.09196808189153671 -1.152943730354309 0.019273046404123306 -0.33988893032073975 -0.4733118414878845 0.37491101026535034 0.4696909189224243 0.7476301789283752 0.2177099585533142 -0.6310344934463501 -0.4703212380409241 0.00418256176635623 0.1324280947446823 0.06991282105445862 0.2218102514743805 0.19384662806987762 -0.011354009620845318 -0.7818652987480164 0.6478269696235657 0.38235703110694885 -0.19319847226142883 0.3404463529586792 1.1017504930496216 -0.6010737419128418 -0.34956857562065125 -0.09177650511264801 0.4597446024417877 0.7035433650016785 0.015882503241300583 -0.13411682844161987 0.08069285750389099 0.9109089374542236 -0.47063490748405457 0.07810976356267929 -0.024809004738926888 1.0047032833099365 -0.40178292989730835 0.8081806898117065 -0.4230780005455017 -0.290677011013031 -0.22897900640964508 0.4134565591812134 -0.4247826635837555 0.07111287117004395 -0.3203319013118744 -0.7729433178901672 -0.6126001477241516 -0.6862684488296509 -0.35369089245796204 -0.34318381547927856 -0.44579702615737915 0.027967289090156555 -0.5827121734619141 0.3916291296482086 -0.4132783114910126 -0.02318437770009041 -0.45817041397094727 -0.6075477600097656 -0.2318698763847351 -0.35767990350723267 0.42390406131744385 0.1343560367822647 0.13495682179927826 0.5503090620040894 0.1280154585838318 -0.02618551440536976 -0.41468822956085205 0.4222007393836975 -0.773807942867279 0.42116737365722656 0.14471663534641266 0.29350340366363525 -0.3503075838088989 -0.7913950085639954 -0.033718291670084 0.43592241406440735 -0.7153021097183228 -0.34818974137306213 -0.09711167216300964 -0.030861100181937218 -0.19527307152748108 0.5881220102310181 -0.002815800718963146 0.31154865026474 -0.5590905547142029 0.6705675721168518 0.7721128463745117 0.7292895913124084 -0.04573896899819374 0.2813296318054199 0.34983476996421814 0.6097051501274109 -0.9134808778762817 0.2672848105430603 0.23861153423786163 -0.2899627983570099 -1.043405294418335 0.14182224869728088 -0.06810503453016281 -0.2530854642391205 0.046681977808475494 0.06851053982973099 -0.12165147811174393 -0.33614495396614075 -0.08113618195056915 -0.6446170210838318 -0.07333028316497803 -0.08582053333520889 0.47747597098350525 0.09434816241264343 -0.33694934844970703 0.6267775297164917 0.03976842015981674 0.2254873663187027 0.5313215851783752 0.24554508924484253 -0.3931351602077484 0.6581158638000488 -0.6150968074798584 -0.01920383609831333 -0.6821931600570679 0.10716552287340164 0.9769028425216675 0.17891331017017365 -0.2051176279783249 -0.14897996187210083 -0.4956985116004944 0.22831940650939941 0.3299192190170288 0.020409857854247093 -0.6144264936447144 0.1602533459663391 0.5235928297042847 0.3250459134578705 0.3446517586708069 -0.26377859711647034 -0.17171713709831238 -0.3157247304916382 -0.141960009932518 -0.4044307768344879 -0.14255847036838531 -0.4565446078777313 -0.4135109484195709 -0.10855456441640854 0.01030849851667881 0.036036405712366104 -0.1992129385471344 -0.4321099519729614 0.640850841999054 -0.40528666973114014 0.10414393246173859 0.37001028656959534 -0.33205467462539673 -0.8885800838470459 0.2528010606765747 -0.03066788800060749 -0.618704080581665 -0.17686747014522552 -0.5010334849357605 -0.07742245495319366 0.5182176232337952 -0.26439169049263 -0.20953820645809174 0.14424777030944824 -0.23512308299541473 0.40390023589134216 0.2684275507926941 0.011691021732985973 -0.5588955879211426 -0.6690646409988403 -0.10231751203536987 -0.2413247525691986 -0.11398489028215408 0.7073823809623718 0.09190242737531662 -0.31877726316452026 0.5988563299179077 0.2554556131362915 0.1486176699399948 -0.11931212991476059 0.4498477876186371 -0.07574650645256042 0.04251808300614357 0.39828866720199585 -0.636264443397522 -0.115643210709095 0.23387858271598816 -0.42736953496932983 0.06199318543076515 0.12040318548679352 -0.20018243789672852 0.010246177203953266 0.7339202165603638 -0.3087150752544403 -0.04154793545603752 -0.002572271041572094 -0.22700385749340057 0.6811392903327942 0.4943278729915619 -0.15777385234832764 -0.24739152193069458 -0.39189258217811584 -0.7194548845291138 0.08577156811952591 0.006220324896275997 0.6743627190589905 -0.26708388328552246 0.38534045219421387 -0.6980147957801819 -0.7151666879653931 -0.04977785795927048 -0.06738226115703583 0.4129983186721802 -0.07091189175844193 -0.14000917971134186 -0.5180813074111938 -0.13619717955589294 -0.14753270149230957 -0.9195082783699036 -1.0942426919937134 -0.2872960865497589 0.2617329955101013 -0.3345344662666321 0.5543485879898071 -0.05259738489985466 -0.22881555557250977 -0.13271282613277435 -0.2598392069339752 0.0023226363118737936 -0.3856808841228485 -0.10349509119987488 -0.08012013137340546 0.040326204150915146 0.11963243037462234 -0.1812249720096588 0.049525465816259384 0.06255986541509628 -0.02291172184050083 0.04198009520769119 0.1349719762802124 0.5562930107116699 -0.1701352894306183 0.26199889183044434 0.4728708267211914 0.47067657113075256 0.1159166768193245 -0.6635238528251648 -0.39056113362312317 0.6174989938735962 0.4475262761116028 -0.24194370210170746 0.029315607622265816 0.11846023797988892 -0.2510605454444885 -0.10901479423046112 -0.23059028387069702 0.9432953596115112 0.0022297920659184456 0.2292594313621521 -0.23784327507019043 -0.7334187030792236 -0.5705535411834717 -0.1543048769235611 -0.35715451836586 -0.08217909932136536 0.1624930202960968 -0.3762398064136505 0.421617329120636 0.26735103130340576 1.1209725141525269 -0.16943597793579102 -0.15839102864265442 0.46795713901519775 -0.528247058391571 0.21680337190628052 -0.24131448566913605 0.6911992430686951 0.5352391600608826 -0.06796319782733917 -0.34490442276000977 0.3466165065765381 0.06387166678905487 0.48137927055358887 -0.3188830018043518 -0.11949840933084488 -0.09985329955816269 0.18996164202690125 -0.3224341571331024 0.017342565581202507 1.2197937965393066 -0.2828176021575928 0.039404600858688354 0.08749919384717941 0.3464609980583191 -0.029663173481822014 0.3438943028450012 0.45498108863830566 0.32908543944358826 0.07084361463785172 0.020091231912374496 -0.21507838368415833 -0.8821706771850586 -0.06856895238161087 0.703640878200531 -0.48802581429481506 -0.6856299638748169 -0.9275408387184143 -0.2527550458908081 0.10201476514339447 1.2827736139297485 -0.10677957534790039 -0.28134775161743164 -0.3580717146396637 0.1501578837633133 0.18818645179271698 0.31705573201179504 -0.5026307702064514 0.3084324300289154 -0.11375391483306885 0.7207814455032349 -0.4481355547904968 -1.0114895105361938 -0.45174551010131836 -0.041475847363471985 -0.15369705855846405 0.641631543636322 -0.07557513564825058 0.25681403279304504 -0.8472740650177002 -0.28013744950294495 -0.2902345061302185 0.49562710523605347 -0.24591317772865295 1.0234770774841309 0.13207004964351654 0.7236515879631042 -0.4419657289981842 0.0050440081395208836 -0.16124702990055084 0.7891790270805359 0.2247818410396576 -0.1324993073940277 -0.47509998083114624 -0.4630071818828583 0.314725786447525 -0.10630778968334198 0.3603467643260956 0.03494393825531006 -0.8869776129722595 -0.6302246451377869 -0.17714238166809082 -0.3222065269947052 -0.18060968816280365 -0.13722766935825348 0.10300377011299133 -0.032894134521484375 0.3096180260181427 0.09548136591911316 3.4767746925354004 -0.3832968473434448 0.44327297806739807 -0.03878306597471237 -0.5773031711578369 0.9375139474868774 0.8604925274848938 0.1242532879114151 -0.21673312783241272 -0.621595025062561 0.2879478335380554 -1.0074008703231812 -0.2576000690460205 -0.07330439239740372 0.03590008616447449 -0.1542479693889618 -0.04059761390089989 -0.06948267668485641 -0.6051583886146545 -0.2185813933610916 -0.04879051074385643 0.79018235206604 -0.008412035182118416 -0.8747369050979614 0.37371617555618286 0.2889299988746643 -0.040994491428136826 1.126947283744812 0.03467892110347748 0.1895654797554016 0.47432148456573486 -0.7347297668457031 0.5014181733131409 0.539825439453125 0.5935765504837036 -0.047023456543684006 0.39682537317276 -0.5342302918434143 0.38847631216049194 -0.1883544772863388 0.2849715054035187 0.4832767844200134 0.28244972229003906 0.4810432195663452 -0.18305817246437073 0.07053316384553909 -0.6342051029205322 0.11206267029047012 -0.2727568447589874 0.15208551287651062 -0.7886026501655579 -0.5548614263534546 -0.417427659034729 -0.44896242022514343 0.26736119389533997 -0.28292202949523926 0.12526355683803558 0.2991977035999298 0.1372242271900177 0.2921093702316284 0.36558616161346436 0.6887011528015137 0.23655085265636444 0.8696607351303101 0.015598305501043797 -0.5712976455688477 -0.3089629113674164 0.4319356381893158 -0.4785301685333252 -0.2734560966491699 0.4638982117176056 -0.20984767377376556 0.1667996644973755
чРЖ -0.4934893846511841 0.20637191832065582 0.2625213861465454 -0.25324347615242004 0.10953919589519501 -0.755914568901062 0.08008059114217758 0.05347754433751106 -0.14051225781440735 0.6696271896362305 -0.06548056751489639 -0.008275053463876247 0.23179991543293 -0.5405504107475281 -0.06511115282773972 -0.1094375029206276 0.10209842771291733 0.35221415758132935 -0.44478726387023926 -0.4365770220756531 0.8571078181266785 0.8034296035766602 0.11674469709396362 -0.422538697719574 0.278308629989624 -0.3106994330883026 0.026744330301880836 0.30433347821235657 0.9413278698921204 0.268511027097702 -0.4127468764781952 -0.6795649528503418 -0.5827202796936035 0.27751314640045166 -0.08792418241500854 -0.5878298282623291 -0.1271497905254364 0.4012267291545868 -0.017944199964404106 0.04301345720887184 0.06259828060865402 0.3018164038658142 -0.279424786567688 -0.8264765739440918 -0.5031704902648926 -0.19736622273921967 0.23302645981311798 0.3352671265602112 -0.43308308720588684 0.021563103422522545 0.7605347037315369 8.913473129272461 -0.19088347256183624 0.36904263496398926 -0.37578415870666504 0.24198749661445618 0.4168400466442108 -1.162610650062561 -0.41001003980636597 0.5723867416381836 -0.5911847352981567 -0.035684749484062195 0.259636789560318 0.043453726917505264 0.8055312037467957 0.021423963829874992 0.886332631111145 0.5462784171104431 0.03514280170202255 0.11197144538164139 0.09568459540605545 -0.0023392236325889826 -0.026111053302884102 -0.050437986850738525 -0.4593377113342285 0.24785751104354858 -0.30155032873153687 0.4664413630962372 -0.4865875840187073 -0.5945547819137573 -1.2628507614135742 0.13703875243663788 0.6014459729194641 -0.30881643295288086 0.13729892671108246 -0.1867382675409317 0.04807461425662041 -0.048884790390729904 0.5305597186088562 0.5220311880111694 -0.47583165764808655 -0.021082507446408272 0.0848340168595314 0.23114636540412903 0.24688860774040222 0.16193664073944092 0.1965804249048233 0.015184442512691021 0.03883757442235947 0.5359327793121338 0.21853621304035187 -0.9664934277534485 -0.19392433762550354 0.24386730790138245 0.24757257103919983 0.5045773983001709 -0.02356451191008091 0.2686772048473358 -0.06082189828157425 0.00514468178153038 -0.7436717748641968 -0.254453182220459 -0.05942477658390999 -0.060512155294418335 -0.68219393491745 -0.3196585774421692 -0.2732335329055786 -0.010851211845874786 0.17322516441345215 0.08878423273563385 -0.2672775685787201 -0.20357093214988708 -0.011893335729837418 -0.45127469301223755 0.5610832571983337 -0.3492995500564575 0.20963013172149658 -0.2712872326374054 -0.43157443404197693 0.15786783397197723 -0.6631620526313782 0.805959165096283 -0.007027194835245609 0.5852802395820618 0.8811062574386597 0.4259011149406433 0.4155239462852478 0.08774608373641968 -0.0901118814945221 -0.11918792873620987 -0.1443125307559967 -0.6649779677391052 -0.13272681832313538 0.04469125717878342 0.49314773082733154 0.7252593040466309 -0.006533875595778227 0.10202958434820175 -0.017756685614585876 0.5745280385017395 -0.28604698181152344 0.28345128893852234 -0.03205425292253494 -0.13310551643371582 0.6658608913421631 0.649304211139679 0.026417208835482597 -0.39597177505493164 -0.23275990784168243 0.300642192363739 -0.079062320291996 0.03557323291897774 -0.28485041856765747 -0.3950319290161133 0.2702195644378662 -0.17449161410331726 -0.021856676787137985 -0.4178723096847534 0.05413271114230156 -0.6175002455711365 -0.6804851293563843 -0.2866829037666321 -0.23028112947940826 -0.5398819446563721 -0.11062262952327728 0.13645970821380615 -0.7155369520187378 -0.5848190784454346 0.0762156993150711 -0.8580425977706909 -1.140784502029419 -0.3132677376270294 0.31978699564933777 0.7440056800842285 0.3227258324623108 -0.19693806767463684 0.2240913361310959 -0.09687896817922592 -0.12161898612976074 0.146829292178154 -0.49516451358795166 -0.3619931936264038 0.03255496174097061 -0.11455685645341873 -0.1270735263824463 0.23430298268795013 -0.7030029296875 -0.15425942838191986 0.1198154166340828 -0.08229892700910568 -0.7689347267150879 -0.34632742404937744 -0.18559078872203827 0.7976376414299011 -0.024180134758353233 0.8533409237861633 0.02245398797094822 0.14821140468120575 0.4349384605884552 -0.08272962272167206 -0.27538272738456726 -0.03246495872735977 0.18545353412628174 0.24447734653949738 0.5197883248329163 0.0534740649163723 0.03930572047829628 0.2957550287246704 0.3231531083583832 -0.737980306148529 0.1948826164007187 -0.29019007086753845 -0.11008825153112411 0.10376506298780441 -0.05998695641756058 0.06259587407112122 -0.40357574820518494 0.2857826054096222 -0.35391509532928467 -0.576796293258667 -0.6076382994651794 0.3534800708293915 0.0882192850112915 0.4134156405925751 -0.05905101075768471 0.3580087423324585 0.15498265624046326 -0.12149997800588608 -0.22234535217285156 -0.4502951204776764 0.3442095220088959 0.02204313687980175 0.032392822206020355 -0.061399247497320175 -0.4211880564689636 0.34155887365341187 -0.37246134877204895 0.13102062046527863 -0.2535683214664459 -0.16027195751667023 -0.36474302411079407 0.2121194750070572 0.07098061591386795 -0.6704707145690918 0.1139160692691803 0.4835911989212036 -0.30606770515441895 -0.4758042097091675 0.2028414011001587 0.7828171253204346 -0.0068389554508030415 -0.76275634765625 0.049634385854005814 0.34482482075691223 -0.0009517964790575206 -0.4101731479167938 -0.14041286706924438 0.1168188527226448 0.5722247958183289 0.1074085459113121 0.21652838587760925 0.42234373092651367 0.11154727637767792 0.22057732939720154 0.49145326018333435 -0.01939142309129238 -0.22602799534797668 -0.370943546295166 -0.49621424078941345 0.4264304041862488 -0.21714386343955994 -0.19709783792495728 -0.06147567182779312 0.014664352871477604 -0.9409916400909424 0.1992798149585724 0.20131149888038635 0.24013714492321014 0.2339773029088974 -0.8106737732887268 -0.1446252018213272 -0.7190024852752686 0.01191127672791481 0.1869216412305832 0.9750161170959473 -0.35486283898353577 -0.08781463652849197 -0.2490285187959671 0.16119065880775452 0.45082786679267883 -0.19754894077777863 -0.47123292088508606 -0.8493614792823792 0.541340708732605 0.30575358867645264 0.17257913947105408 0.40317583084106445 0.19981999695301056 -0.3427445590496063 -0.2879524230957031 -0.09537623077630997 -0.2268148511648178 0.0007531961309723556 -0.215003103017807 -1.1163274049758911 -0.09936082363128662 0.46634140610694885 -0.686689555644989 -0.21390117704868317 -0.135320246219635 0.5111363530158997 -0.1448424607515335 0.1290341168642044 0.06525180488824844 0.10058265179395676 0.22040225565433502 0.18561092019081116 -0.05622846260666847 -0.2541314661502838 0.7197074294090271 -0.04634817689657211 -0.47885632514953613 0.08258235454559326 1.3024520874023438 0.24523521959781647 0.053812138736248016 -0.040515266358852386 -0.03475620970129967 -0.34750550985336304 0.19544978439807892 0.043685656040906906 0.3923720717430115 -0.11682868003845215 0.23351581394672394 -0.4599124491214752 -0.16769540309906006 0.2911498546600342 0.11301687359809875 0.2738470137119293 0.10204730182886124 -0.48156967759132385 0.6308988332748413 -0.49671438336372375 -0.23894625902175903 -0.40627866983413696 0.32058459520339966 -0.020330188795924187 0.2996925711631775 0.02452009730041027 0.9586223363876343 0.030568545684218407 0.22616125643253326 -0.03885084390640259 0.011254403740167618 0.33249804377555847 0.24078433215618134 0.21190902590751648 0.7654983401298523 0.35955435037612915 -0.7759767174720764 -0.2465398907661438 -0.12629181146621704 1.3920180797576904 0.03337405249476433 0.5460365414619446 -0.1665387600660324 0.13109108805656433 0.33276766538619995 0.37098249793052673 0.25247418880462646 0.059698984026908875 0.06250909715890884 -0.5735297799110413 1.0338095426559448 0.05428922176361084 0.10652820765972137 0.21714694797992706 -0.3694755733013153 0.055549491196870804 -0.08957110345363617 -0.44773629307746887 -0.32849863171577454 -0.23101706802845 -0.8709406852722168 -0.37773966789245605 0.6594114303588867 0.24260149896144867 -0.37490832805633545 -0.16369618475437164 0.005678471177816391 0.6257950663566589 0.5933053493499756 -0.4529622197151184 -0.34307539463043213 -0.3888840973377228 -0.5203351378440857 -0.03347707912325859 0.34970447421073914 0.6739651560783386 -0.6268036961555481 -0.1337408572435379 1.057803750038147 0.12163547426462173 -0.7128925323486328 0.709136426448822 -0.012845461256802082 0.3226044774055481 -1.4339237213134766 0.6327439546585083 -0.13388775289058685 0.2968325912952423 -0.13641276955604553 0.20148596167564392 -0.05086123198270798 1.3306736946105957 -0.07124863564968109 0.14082753658294678 -0.3052321970462799 -0.06432505697011948 -0.37318915128707886 0.38884785771369934 0.2939615249633789 -0.20005854964256287 0.582457959651947 -0.036185409873723984 0.1999087780714035 -0.5024465322494507 -0.04437219351530075 -0.0033614174462854862 -0.5464285612106323 -0.636874794960022 0.1038474291563034 0.05006833374500275 0.39869967103004456 -0.11860588192939758 -0.04823354631662369 0.3086608946323395 -0.4723784029483795 -0.20201937854290009 -0.04704174026846886 0.6835179328918457 0.22467461228370667 -0.43872982263565063 0.505286455154419 -0.019319094717502594 -0.29456597566604614 0.42182332277297974 -0.48888614773750305 -0.5408357381820679 0.1133228987455368 -0.12041354179382324 -0.46343329548835754 -0.20413032174110413 -0.3488273024559021 -0.3532489836215973 0.4150506556034088 0.07799676060676575 -0.8734163045883179 0.8122671246528625 -0.12836208939552307 0.31042787432670593 0.22014683485031128 0.23189131915569305 0.63629150390625 -0.5881342887878418 -0.21025350689888 -0.4111280143260956 0.018654977902770042 -1.1397967338562012 -0.2420259416103363 0.11472757905721664 -0.5787858963012695 -0.1569562554359436 -0.2655787765979767 -0.4346454441547394 0.07040871679782867 -0.5035964846611023 -0.36846089363098145 -0.012445898726582527 -0.585063636302948 -0.560964047908783 0.09722505509853363 0.02126029133796692 0.2918546497821808 -0.18856793642044067 -0.48281383514404297 -0.15598738193511963 0.4526872932910919 -0.5518425107002258 -0.10803374648094177 -0.8839359879493713 -0.4511798620223999 -0.15326423943042755 -0.07549308985471725 -1.0327653884887695 0.11393355578184128 -0.028860297054052353 -0.05560443177819252 -0.041642386466264725 0.2599031627178192 -0.06702541559934616 -0.3299701511859894 -0.5831409692764282 0.7731714248657227 0.4581146836280823 -0.03273043408989906 0.268703818321228 -0.5845158696174622 0.042702317237854004 -0.33409765362739563 0.08639062196016312 -0.7283792495727539 0.4428168535232544 0.12264134734869003 -0.34284088015556335 0.13376662135124207 -0.1430915892124176 0.31659600138664246 0.3815029561519623 0.46409985423088074 0.5219298005104065 -0.47951751947402954 -0.19049687683582306 -0.737628698348999 -0.2447887510061264 0.30973127484321594 -0.07189026474952698 -0.16327117383480072 -0.6860007643699646 0.2730160653591156 0.10901543498039246 -0.3912853002548218 0.07194693386554718 0.6538520455360413 -0.3633996248245239 -0.7790390849113464 -0.02925395779311657 0.2766820788383484 0.2727898061275482 0.4435279667377472 -0.8116328716278076 0.19668707251548767 -0.027189360931515694 0.36291801929473877 -0.19536323845386505 -0.7026271820068359 -0.4713279902935028 0.23178575932979584 -0.16560257971286774 -0.2392149269580841 -0.17430739104747772 0.412904292345047 -0.6221305131912231 -0.25692328810691833 -0.269919216632843 -0.5720070004463196 -0.06338924914598465 -0.2282930612564087 -0.03200224041938782 0.6465948820114136 0.14066143333911896 -0.2891083359718323 0.1786540448665619 -0.19939590990543365 0.6858627796173096 0.3895227313041687 -0.09257139265537262 -0.027063781395554543 -0.17898228764533997 -0.017799319699406624 0.1095741018652916 0.3363787531852722 -0.5556406378746033 -0.763340413570404 0.01712791621685028 0.7833850979804993 0.6764844655990601 -0.17048132419586182 0.1554967612028122 0.033487968146800995 0.08615215867757797 0.15326569974422455 -0.13437320291996002 -0.13359516859054565 -0.3674302399158478 -0.47171688079833984 -0.2970525622367859 -0.4197700619697571 0.14358621835708618 0.9724858403205872 0.04254001006484032 -0.41576188802719116 -0.6946917772293091 0.22044582664966583 -0.09371870011091232 0.4786982536315918 0.8065418004989624 -0.4977143406867981 -0.15049445629119873 0.34748291969299316 0.02589615248143673 -0.6688151359558105 0.8170850872993469 -0.1357661783695221 -0.3291642963886261 -0.3996374011039734 -0.6621894240379333 0.13887882232666016 -0.6212198734283447 0.5413137674331665 0.27747175097465515 -0.7444629073143005 0.6181073188781738 0.24738791584968567 0.0020175580866634846 0.20814143121242523 1.0988267660140991 -0.035379886627197266 -0.044478025287389755 -1.032098412513733 0.24339430034160614 -0.6153090000152588 0.2805064618587494 0.1562137007713318 -0.008383916690945625 -0.4413492679595947 0.7351183295249939 -0.2889798879623413 -0.4538079500198364 -0.16951487958431244 0.14384499192237854 -0.7941384315490723 0.1634203940629959 -1.012845754623413 0.3416374623775482 -0.12833933532238007 0.5048472881317139 0.5359756946563721 0.4688471257686615 -0.5740994811058044 0.24554961919784546 -0.02874762751162052 0.09889776259660721 -0.5228708386421204 0.05344906821846962 -0.4484077990055084 1.1069334745407104 0.08534864336252213 -0.3406667709350586 -0.3409588038921356 -0.20142684876918793 0.5451979041099548 0.8815864324569702 -0.5106827020645142 -0.4284113943576813 -0.1346079558134079 0.2034282684326172 0.23865707218647003 -0.025723988190293312 0.7899064421653748 0.13703837990760803 0.20287610590457916 -0.008795748464763165 -0.4814381003379822 -0.5996565818786621 0.5105594992637634 0.2682027816772461 -0.11523622274398804 0.19067658483982086 -0.8112632632255554 0.089579738676548 0.1275988221168518 0.35991552472114563 -0.08515294641256332 0.01564144901931286 -0.0898374617099762 -0.24371981620788574 -0.18116331100463867 -0.37149113416671753 0.3021261990070343 -0.009178632870316505 0.13830146193504333 -0.42091941833496094 0.21919645369052887 0.07138682901859283 1.9141125679016113 -0.2943567633628845 0.5345301628112793 0.3946031928062439 -0.042029835283756256 0.7910472750663757 0.35288354754447937 -0.22105799615383148 -0.09042283892631531 -0.26478496193885803 0.8940815925598145 -0.5958604216575623 0.3428605794906616 -0.028128018602728844 0.2277955859899521 -0.15516343712806702 0.11450865864753723 0.6647585034370422 -0.1250394880771637 0.5357822775840759 -0.029365306720137596 0.04495500400662422 -0.18762637674808502 -0.0060270135290920734 -0.32375574111938477 0.5002060532569885 -0.44528454542160034 0.38532790541648865 -0.41445422172546387 0.6848475933074951 0.32854941487312317 -0.49092811346054077 0.059839680790901184 -0.07653903216123581 0.05398727208375931 0.4097856879234314 -0.4322777986526489 -0.43599551916122437 -0.0581020824611187 -0.1976907104253769 0.2012113481760025 -0.537571907043457 0.25264987349510193 0.7131707668304443 1.3960834741592407 -0.511963427066803 -0.5566490888595581 0.47040271759033203 -0.925859808921814 -0.8041168451309204 -0.7588043808937073 -0.5601047873497009 -0.8357119560241699 0.14500640332698822 0.32764142751693726 -0.08624554425477982 0.1587645709514618 0.08070355653762817 -0.1899951547384262 0.031793951988220215 -0.25770479440689087 1.1514112949371338 -0.05374777689576149 0.4950679540634155 0.40895137190818787 -0.3052079975605011 -0.5831882357597351 -0.4893420338630676 -0.04170041158795357 -0.8394272923469543 0.06296876072883606 -0.0332924947142601 -0.19372820854187012
